SVM-light Version V6.02
0 # kernel type
3 # kernel parameter -d 
1 # kernel parameter -g 
1 # kernel parameter -s 
1 # kernel parameter -r 
empty# kernel parameter -u 
32 # highest feature index 
10466 # number of training documents 
7059 # number of support vectors plus 1 
1.0025036 # threshold b, each following line is a SV (starting with alpha*y)
-9.0249168900676601647349592415942e-11 1:100005 2:89.744003 3:13.55 4:59.148998 5:116.344 6:2.6359999 7:284.58401 8:-0.54000002 9:1.362 10:61.618999 11:278.87601 12:0.588 13:0.479 14:0.97500002 15:53.651001 16:0.37099999 17:1.329 18:31.565001 19:-0.884 20:1.857 21:40.735001 22:2.237 23:282.849 24:3 25:90.546997 26:-2.4119999 27:-0.653 28:56.165001 29:0.22400001 30:3.1059999 31:193.66 32:0.083414033 #
9.0249168900676601647349592415942e-11 1:100000 2:138.47 3:51.654999 4:97.827003 5:27.98 6:0.91000003 7:124.711 8:2.6659999 9:3.0639999 10:41.928001 11:197.75999 12:1.582 13:1.396 14:0.2 15:32.638 16:1.017 17:0.38100001 18:51.625999 19:2.273 20:-2.414 21:16.823999 22:-0.27700001 23:258.733 24:2 25:67.434998 26:2.1500001 27:0.44400001 28:46.062 29:1.24 30:-2.4749999 31:113.497 32:0.0026533112 #
-9.0249168900676601647349592415942e-11 1:102588 2:666.84698 3:84.162003 4:477.358 5:2.0639999 6:-999 7:-999 8:-999 9:5.007 10:2.0639999 11:125.271 12:1.426 13:-1.399 14:-999 15:51.626999 16:2.1340001 17:-0.061000001 18:73.643997 19:-1.926 20:-2.9920001 21:25.726 22:0.667 23:123.681 24:0 25:-999 26:-999 27:-999 28:-999 29:-999 30:-999 31:0 32:2.9563639 #
9.0249168900676601647349592415942e-11 1:103748 2:128.681 3:77.682999 4:52.354 5:174.927 6:7.2509999 7:3624.1541 8:-12.942 9:1.478 10:6.6999998 11:313.76199 12:1.0039999 13:1.235 14:0.954 15:38.676998 16:1.409 17:0.2 18:38.84 19:1.24 20:1.668 21:121.642 22:0.46700001 23:457.802 24:2 25:186.235 26:-3.1760001 27:-2.293 28:50.009998 29:4.0749998 30:2.033 31:236.245 32:0.0015027048 #
-9.0249168900676601647349592415942e-11 1:110390 2:-999 3:91.580002 4:30.936001 5:75.599998 6:5.934 7:1255.915 8:-7.7750001 9:1.153 10:2.727 11:194.746 12:1.549 13:-0.124 14:0.58899999 15:22.718 16:-1.302 17:-0.324 18:35.186001 19:-1.143 20:-1.465 21:72.238998 22:0.81300002 23:237.931 24:2 25:91.237 26:-1.9529999 27:2.7909999 28:45.605 29:3.9809999 30:-1.327 31:136.843 32:2.0580111 #
9.0249168900676601647349592415942e-11 1:100037 2:155.487 3:61.071999 4:125.013 5:2.7679999 6:-999 7:-999 8:-999 9:2.908 10:2.7679999 11:123.704 12:1.176 13:-1.408 14:-999 15:56.845001 16:-0.935 17:2.0090001 18:66.859001 19:-1.357 20:-1.397 21:16.589001 22:0.92299998 23:95.266998 24:0 25:-999 26:-999 27:-999 28:-999 29:-999 30:-999 31:-0 32:0.018636117 #
-9.0249168900676601647349592415942e-11 1:100154 2:282.242 3:47.943001 4:224.58299 5:153.94701 6:5.7620001 7:1428.776 8:-8.2010002 9:3.207 10:4.2449999 11:407.19501 12:3.8540001 13:1.402 14:0.611 15:44.676998 16:-0.222 17:0.93400002 18:172.2 19:-1.707 20:-2.507 21:27.906 22:3.0699999 23:471.26501 24:2 25:146.463 26:-2.5669999 27:0.73500001 28:43.855999 29:3.1949999 30:-0.74800003 31:190.319 32:0.073899128 #
9.0249168900676601647349592415942e-11 1:110456 2:70.470001 3:19.237 4:51.465 5:22.160999 6:-999 7:-999 8:-999 9:3.0840001 10:22.160999 11:50.734001 12:1.073 13:-1.413 14:-999 15:24.479 16:-0.93400002 17:2.056 18:26.254999 19:-1.285 20:-1.008 21:22.125 22:-1.829 23:89.022003 24:0 25:-999 26:-999 27:-999 28:-999 29:-999 30:-999 31:0 32:0.018636117 #
-9.0249168900676601647349592415942e-11 1:110461 2:93.223999 3:48.691002 4:71.098 5:9.7629995 6:-999 7:-999 8:-999 9:3.04 10:9.7629995 11:55.499001 12:1.221 13:-1.409 14:-999 15:24.988001 16:-1.503 17:2.671 18:30.511 19:0.041000001 20:0.052999999 21:25.042 22:-2.102 23:124.22 24:0 25:-999 26:-999 27:-999 28:-999 29:-999 30:-999 31:0 32:5.2372384 #
9.0249168900676601647349592415942e-11 1:100245 2:159.592 3:13.063 4:88.237999 5:275.13699 6:3.342 7:1056.395 8:-2.6860001 9:1.064 10:15.092 11:627.92902 12:0.48800001 13:1.189 14:0.88300002 15:122.052 16:-0.43099999 17:2.6159999 18:59.563 19:-0.91600001 20:1.67 21:119.325 22:1.825 23:768.79901 24:2 25:333.979 26:1.345 27:-1.2869999 28:112.337 29:-1.997 30:1.045 31:446.315 32:0.0015027048 #
-9.0249168900676601647349592415942e-11 1:100068 2:88.531998 3:16.344999 4:50.139999 5:95.308998 6:4.5570002 7:580.12598 8:-3.4360001 9:1.771 10:34.155998 11:187.65401 12:1.29 13:1.306 14:0.58499998 15:26.665001 16:-1.201 17:0.175 18:34.405998 19:-0.34400001 20:1.725 21:52.174999 22:1.337 23:326.00699 24:2 25:83.996002 26:-0.95300001 27:-1.522 28:42.588001 29:3.6040001 30:-2.122 31:126.584 32:0.071357138 #
9.0249168900676601647349592415942e-11 1:110454 2:89.596001 3:3.052 4:63.280998 5:3.7060001 6:-999 7:-999 8:-999 9:3.082 10:3.7060001 11:63.832001 12:0.73799998 13:-1.373 14:-999 15:36.716999 16:-0.58700001 17:-2.697 18:27.115 19:-0.745 20:0.509 21:13.399 22:0.34900001 23:87.330002 24:0 25:-999 26:-999 27:-999 28:-999 29:-999 30:-999 31:0 32:0.018636117 #
-9.0249168900676601647349592415942e-11 1:110462 2:121.38 3:76.953003 4:95.783997 5:3.7019999 6:-999 7:-999 8:-999 9:2.704 10:3.7019999 11:100.156 12:1.503 13:-1.397 14:-999 15:40.019001 16:1.881 17:-0.33000001 18:60.138 19:1.869 20:2.3740001 21:28.337999 22:-1.5089999 23:160.082 24:0 25:-999 26:-999 27:-999 28:-999 29:-999 30:-999 31:-0 32:4.5107079 #
9.0249168900676601647349592415942e-11 1:100006 2:148.754 3:28.862 4:107.782 5:106.13 6:0.73299998 7:158.35899 8:0.113 9:2.941 10:2.5450001 11:305.96701 12:3.3710001 13:1.393 14:0.79100001 15:28.85 16:1.113 17:2.4089999 18:97.239998 19:0.67500001 20:-0.96600002 21:38.421001 22:-1.443 23:294.07401 24:2 25:123.01 26:0.86400002 27:1.45 28:56.867001 29:0.131 30:-2.767 31:179.877 32:0.0026533112 #
-9.0249168900676601647349592415942e-11 1:100011 2:114.744 3:10.286 4:75.711998 5:30.816 6:2.563 7:252.599 8:-1.401 9:2.888 10:36.744999 11:239.804 12:1.061 13:1.364 14:0.76899999 15:35.976002 16:-0.66900003 17:-0.34200001 18:38.188 19:-0.16500001 20:2.5020001 21:22.385 22:2.148 23:290.547 24:3 25:76.773003 26:-0.79000002 27:0.303 28:56.875999 29:1.773 30:-2.079 31:165.64 32:0.30716953 #
9.0249168900676601647349592415942e-11 1:110463 2:157.084 3:5.0469999 4:98.189003 5:23.405001 6:-999 7:-999 8:-999 9:2.744 10:23.405001 11:101.727 12:0.61400002 13:0.37400001 14:-999 15:63.037998 16:0.44499999 17:-2.756 18:38.688999 19:0.090000004 20:-0.035 21:28.625 22:0.117 23:203.086 24:0 25:-999 26:-999 27:-999 28:-999 29:-999 30:-999 31:0 32:0.018636117 #
-9.0249168900676601647349592415942e-11 1:110425 2:205.849 3:82.892998 4:170.506 5:22.308001 6:-999 7:-999 8:-999 9:3.1040001 10:22.308001 11:142.674 12:0.91399997 13:-1.409 14:-999 15:74.539001 16:0.025 17:-1.778 18:68.135002 19:1.288 20:1.669 21:31.149 22:-0.56900001 23:106.641 24:0 25:-999 26:-999 27:-999 28:-999 29:-999 30:-999 31:0 32:2.1364841 #
9.0249168900676601647349592415942e-11 1:100039 2:120.506 3:22.729 4:88.889 5:35.999001 6:0.21799999 7:167.175 8:5.1700001 9:2.4649999 10:32.706001 11:294.349 12:1.448 13:1.171 14:0 15:39.106998 16:-1.081 17:1.431 18:56.610001 19:-1.1849999 20:-1.0319999 21:2.7130001 22:1.29 23:243.867 24:3 25:88.399002 26:-2.168 27:-1.423 28:77.269997 29:-2.385 30:1.876 31:198.632 32:0.0026533112 #
-9.0249168900676601647349592415942e-11 1:100029 2:98.761002 3:14.024 4:74.230003 5:132.806 6:3.6760001 7:315.854 8:-2.665 9:1.261 10:23.290001 11:239.33 12:1.541 13:1.306 14:0.98199999 15:49.624001 16:-1.0930001 17:1.995 18:76.454002 19:-0.59500003 20:0.83600003 21:26.438 22:1.15 23:357.815 24:2 25:80.626999 26:0.99299997 27:-2.0179999 28:32.625 29:-2.6830001 30:-1.467 31:113.252 32:0.30979514 #
9.0249168900676601647349592415942e-11 1:110451 2:117.558 3:14.561 4:76.709 5:3.4779999 6:-999 7:-999 8:-999 9:2.921 10:3.4779999 11:79.820999 12:0.505 13:-1.365 14:-999 15:53.040001 16:-0.35299999 17:-3.03 18:26.781 19:0.097999997 20:-0.14399999 21:25.018 22:0.426 23:89.566002 24:0 25:-999 26:-999 27:-999 28:-999 29:-999 30:-999 31:0 32:0.018636117 #
-9.0249168900676601647349592415942e-11 1:110442 2:124.833 3:57.07 4:83.815002 5:6.8249998 6:-999 7:-999 8:-999 9:3.3199999 10:6.8249998 11:62.709 12:1.701 13:-1.12 14:-999 15:23.215 16:2.165 17:-0.46200001 18:39.493999 19:0.447 20:2.3789999 21:20.627001 22:-0.80599999 23:97.771004 24:0 25:-999 26:-999 27:-999 28:-999 29:-999 30:-999 31:0 32:5.7327003 #
9.0249168900676601647349592415942e-11 1:100023 2:141.481 3:0.736 4:111.581 5:174.075 6:1.955 7:364.34399 8:-0.92299998 9:1.335 10:6.6630001 11:440.85901 12:0.65200001 13:1.0420001 14:0.207 15:98.565002 16:0.19 17:-1.506 18:64.285004 19:1.405 20:-0.95200002 21:17.959999 22:-0.97299999 23:454.785 24:2 25:195.533 26:1.156 27:1.416 28:82.476997 29:-0.79799998 30:-2.7850001 31:278.009 32:0.0015027048 #
-9.0249168900676601647349592415942e-11 1:100033 2:123.112 3:62.757999 4:86.702003 5:39.901001 6:3.1600001 7:244.181 8:-2.1389999 9:2.825 10:9.7320004 11:184.194 12:2.089 13:1.337 14:0.92900002 15:26.075001 16:-0.175 17:-0.78200001 18:54.476002 19:1.026 20:2.944 21:23.618 22:-1.209 23:309.42999 24:2 25:71.126999 26:2.177 27:0.55800003 28:32.514999 29:-0.98299998 30:-2.628 31:103.642 32:1.1351516 #
9.0249168900676601647349592415942e-11 1:110448 2:126.71 3:53.868 4:88.495003 5:3.6800001 6:-999 7:-999 8:-999 9:2.987 10:3.6800001 11:88.401001 12:1.279 13:-1.383 14:-999 15:38.789001 16:0.435 17:-0.852 18:49.612 19:0.123 20:2.118 21:14.946 22:-1.319 23:117.801 24:0 25:-999 26:-999 27:-999 28:-999 29:-999 30:-999 31:0 32:0.018636117 #
-9.0249168900676601647349592415942e-11 1:110403 2:163.84 3:79.375999 4:132.448 5:31.909 6:-999 7:-999 8:-999 9:2.609 10:31.909 11:127.013 12:0.81900001 13:-1.3839999 14:-999 15:69.815002 16:0.90200001 17:-1.377 18:57.198002 19:1.794 20:2.454 21:31.177 22:0.0099999998 23:249.54601 24:0 25:-999 26:-999 27:-999 28:-999 29:-999 30:-999 31:-0 32:4.3756752 #
9.0249168900676601647349592415942e-11 1:100051 2:104.142 3:37.939999 4:69.028999 5:50.580002 6:3.941 7:411.81299 8:-1.86 9:2.448 10:4.1939998 11:185.688 12:0.98900002 13:1.4069999 14:0.991 15:35.311001 16:0.94800001 17:-2.1670001 18:34.911999 19:1.605 20:1.758 21:24.104 22:-3.099 23:202.28101 24:2 25:69.371002 26:-0.54799998 27:0.56999999 28:46.094002 29:3.392 30:-1.725 31:115.465 32:0.0015027048 #
-9.0249168900676601647349592415942e-11 1:100099 2:107.35 3:20.354 4:77.754997 5:89.043999 6:4.4489999 7:564.836 8:-2.99 9:2.4820001 10:31.871 11:233.13901 12:3.6099999 13:1.335 14:0.25099999 15:21.617001 16:-1.268 17:-1.114 18:78.033997 19:-1.216 20:2.688 21:27.167 22:3.1340001 23:327.422 24:2 25:95.351997 26:-0.82499999 27:-0.20100001 28:38.134998 29:3.625 30:2.9300001 31:133.48801 32:2.3175581 #
9.0249168900676601647349592415942e-11 1:110444 2:111.742 3:23.851 4:78.255997 5:5.9320002 6:-999 7:-999 8:-999 9:3.1830001 10:5.9320002 11:74.684998 12:1.094 13:-1.414 14:-999 15:35.669998 16:-1.414 17:0.917 18:39.014 19:-0.79100001 20:-2.2049999 21:6.2519999 22:2.3410001 23:158.605 24:0 25:-999 26:-999 27:-999 28:-999 29:-999 30:-999 31:0 32:0.018636117 #
-9.0249168900676601647349592415942e-11 1:110435 2:75.759003 3:46.737999 4:61.291 5:1.323 6:-999 7:-999 8:-999 9:2.7279999 10:1.323 11:53.279999 12:1.403 13:-1.401 14:-999 15:22.173 16:0.73199999 17:2.9749999 18:31.107 19:2.0420001 20:-0.91600001 21:21.204 22:1.37 23:77.263 24:0 25:-999 26:-999 27:-999 28:-999 29:-999 30:-999 31:0 32:5.1553593 #
9.0249168900676601647349592415942e-11 1:100032 2:129.186 3:64.044998 4:69.499001 5:63.165001 6:5.0869999 7:854.79901 8:-6.1589999 9:2.7449999 10:6.5799999 11:203.08 12:0.76899999 13:1.355 14:0.81999999 15:37.764 16:0.215 17:0.74000001 18:29.054001 19:-0.57499999 20:-2.914 21:45.252998 22:1.204 23:199.86099 24:2 25:81.169998 26:3.102 27:-0.977 28:55.091999 29:-1.985 30:3.0650001 31:136.26199 32:0.0015027048 #
-9.0249168900676601647349592415942e-11 1:100084 2:99.667999 3:25.986 4:60.637001 5:192.267 6:1.048 7:231.34599 8:-0.273 9:1.405 10:37.955002 11:435.67899 12:3.2820001 13:0.67699999 14:0.47499999 15:23.844999 16:-0.56 17:1.128 18:78.248001 19:0.41800001 20:0.119 21:105.389 22:-0.168 23:392.83801 24:3 25:176.49001 26:-0.55800003 27:2.664 28:73.566002 29:0.49000001 30:-1.6160001 31:333.586 32:0.35854 #
9.0249168900676601647349592415942e-11 1:110361 2:-999 3:236.612 4:199.60201 5:2.046 6:-999 7:-999 8:-999 9:2.97 10:2.046 11:209.582 12:2.559 13:-1.306 14:-999 15:58.884998 16:1.169 17:-2.4230001 18:150.69701 19:1.9 20:0.456 21:93.607002 22:-2.8629999 23:95.133003 24:0 25:-999 26:-999 27:-999 28:-999 29:-999 30:-999 31:0 32:0.0026533112 #
-9.0249168900676601647349592415942e-11 1:102249 2:-999 3:93.903999 4:115.901 5:198.8 6:1.6059999 7:202.686 8:-0.60299999 9:2.7739999 10:1.882 11:308.88199 12:1.822 13:1.402 14:0.001 15:29.306999 16:-0.088 17:-2.7720001 18:53.411999 19:1.979 20:1.661 21:151.19 22:2.7609999 23:278.237 24:2 25:172.58099 26:0.597 27:-0.26199999 28:53.582001 29:-1.0089999 30:-1.432 31:226.16299 32:0.74405622 #
9.0249168900676601647349592415942e-11 1:100057 2:148.52299 3:31.910999 4:97.497002 5:171.07401 6:1.209 7:262.60999 8:-0.067000002 9:1.423 10:20.858999 11:420.08899 12:1.018 13:0.55800003 14:0 15:73.982002 16:-1.987 17:-2.8640001 18:75.348 19:-1.992 20:-1.441 21:86.93 22:-1.044 23:521.35999 24:2 25:214.44901 26:-0.057999998 27:1.525 28:56.310001 29:1.151 30:-1.743 31:270.759 32:0.0015027048 #
-9.0249168900676601647349592415942e-11 1:100098 2:77.578003 3:72.277 4:58.167999 5:153.606 6:2.6040001 7:370.93701 8:-1.597 9:0.98799998 10:41.756001 11:330.67001 12:2.0320001 13:0.57200003 14:0.061000001 15:41.804001 16:-1.298 17:1.9299999 18:84.954002 19:-1.8660001 20:2.7390001 21:50.145 22:1.5650001 23:351.78 24:2 25:111.656 26:-0.98699999 27:-0.035 28:92.255997 29:1.617 30:-1.433 31:203.911 32:0.30979514 #
9.0249168900676601647349592415942e-11 1:110431 2:132.64999 3:18.426001 4:100.434 5:8.8920002 6:-999 7:-999 8:-999 9:3.4159999 10:8.8920002 11:63.980999 12:1.053 13:-1.402 14:-999 15:31.167 16:0.59500003 17:0.79000002 18:32.813999 19:-1.474 20:-1.929 21:7.8080001 22:3.128 23:119.037 24:0 25:-999 26:-999 27:-999 28:-999 29:-999 30:-999 31:0 32:0.018636117 #
-9.0249168900676601647349592415942e-11 1:110383 2:186.24001 3:94.753998 4:126.818 5:4.5359998 6:-999 7:-999 8:-999 9:3.062 10:4.5359998 11:124.39 12:1.635 13:-1.397 14:-999 15:47.206001 16:1.247 17:0.49000001 18:77.183998 19:1.895 20:-2.503 21:30.087 22:1.007 23:162.80701 24:0 25:-999 26:-999 27:-999 28:-999 29:-999 30:-999 31:0 32:4.7865348 #
9.0249168900676601647349592415942e-11 1:100060 2:103.646 3:40.917999 4:64.244003 5:135.726 6:0.68000001 7:73.056 8:1.649 9:1.524 10:18.535 11:305.02701 12:0.51700002 13:1.2869999 14:0.95899999 15:61.113998 16:-0.59500003 17:1.353 18:31.599001 19:-1.398 20:2.648 21:59.825001 22:1.668 23:402.27701 24:3 25:78.174004 26:-1.668 27:-0.97799999 28:58.097 29:-0.98900002 30:-1.727 31:212.314 32:0.0015027048 #
-9.0249168900676601647349592415942e-11 1:100083 2:145.99001 3:68.862 4:97.342003 5:28.538 6:4.664 7:396.91501 8:-5.1490002 9:3.0880001 10:24.909 11:174.47 12:2.1389999 13:1.41 14:0.67699999 15:31.233999 16:-0.185 17:2.9449999 18:66.795998 19:-0.917 20:-0.056000002 21:20.804001 22:2.299 23:198.90401 24:2 25:39.577 26:2.8710001 27:-2.316 28:36.862999 29:-1.793 30:1.295 31:76.440002 32:1.0829403 #
9.0249168900676601647349592415942e-11 1:110427 2:103.881 3:40.709 4:90.288002 5:27.459999 6:-999 7:-999 8:-999 9:2.76 10:27.459999 11:71.357002 12:1.535 13:-1.362 14:-999 15:28.148001 16:0.47499999 17:-1.114 18:43.209 19:-1.202 20:2.977 21:19.606001 22:1.428 23:79.787003 24:0 25:-999 26:-999 27:-999 28:-999 29:-999 30:-999 31:0 32:0.0026533112 #
-9.0249168900676601647349592415942e-11 1:110413 2:104.193 3:38.971001 4:78.929001 5:3.7690001 6:-999 7:-999 8:-999 9:2.6600001 10:3.7690001 11:72.292 12:0.73900002 13:-1.402 14:-999 15:41.563 16:0.52899998 17:2.3959999 18:30.728001 19:1.645 20:-0.017999999 21:24.011999 22:-1.618 23:132.172 24:0 25:-999 26:-999 27:-999 28:-999 29:-999 30:-999 31:0 32:4.4630661 #
9.0249168900676601647349592415942e-11 1:100107 2:109.829 3:3.322 4:65.335999 5:52.220001 6:2.8929999 7:211.215 8:3.0610001 9:3.1289999 10:1.148 11:162.336 12:1.235 13:1.402 14:0.54299998 15:29.094 16:1.424 17:-2.994 18:35.931999 19:1.1390001 20:0.122 21:45.334 22:0.039999999 23:148.394 24:2 25:55.813999 26:3.7160001 27:-2.3429999 28:41.495998 29:0.824 30:1.908 31:97.309998 32:0.0015027048 #
-9.0249168900676601647349592415942e-11 1:100059 2:73.819 3:83.737 4:60.659 5:43.435001 6:1.494 7:162.19099 8:-0.546 9:1.576 10:45.806999 11:273.216 12:2.027 13:-1.34 14:0.001 15:30 16:2.02 17:-1.803 18:60.803001 19:1.905 20:2.908 21:39.932999 22:0.87699997 23:283.314 24:3 25:80.042 26:-0.85600001 27:1.304 28:52.500999 29:0.63800001 30:-1.114 31:182.41299 32:0.74405622 #
9.0249168900676601647349592415942e-11 1:110420 2:92.697998 3:9.9840002 4:65.011002 5:2.108 6:-999 7:-999 8:-999 9:2.9579999 10:2.108 11:66.096001 12:0.67400002 13:-1.388 14:-999 15:39.479 16:-1.04 17:-2.7190001 18:26.617001 19:-0.79900002 20:0.229 21:12.198 22:0.79000002 23:70.774002 24:0 25:-999 26:-999 27:-999 28:-999 29:-999 30:-999 31:0 32:0.0015027048 #
-9.0249168900676601647349592415942e-11 1:110397 2:192.08501 3:52.199001 4:143.946 5:0.097000003 6:-999 7:-999 8:-999 9:4.1589999 10:0.097000003 11:57.669998 12:1.686 13:-1.369 14:-999 15:21.469 16:2.161 17:-1.311 18:36.201 19:-1.053 20:1.33 21:20.207001 22:-2.342 23:26.128 24:0 25:-999 26:-999 27:-999 28:-999 29:-999 30:-999 31:0 32:6.8813782 #
9.0249168900676601647349592415942e-11 1:100101 2:95.787003 3:24.108999 4:63.069 5:49.993999 6:0.237 7:146.118 8:3.859 9:2.266 10:54.026001 11:238.888 12:0.89099997 13:1.411 14:0 15:33.700001 16:-1.261 17:1.827 18:30.017 19:-0.29499999 20:-0.223 21:16.768999 22:0.91100001 23:415.991 24:2 25:135.815 26:-2.0869999 27:-2.1989999 28:39.355999 29:-1.85 30:0.49000001 31:175.17101 32:0.0015027048 #
-9.0249168900676601647349592415942e-11 1:100214 2:66.446999 3:6.7210002 4:33.942001 5:178.633 6:0.064999998 7:553.43597 8:0.025 9:0.81 10:25.153 11:665.89502 12:0.94 13:1.205 14:0 15:43.151001 16:-0.052000001 17:0.213 18:40.578999 19:-0.63200003 20:0.778 21:98.983002 22:0.67199999 23:781.47498 24:2 25:379.005 26:0.192 27:-2.4260001 28:203.159 29:0.12800001 30:0.94999999 31:582.16498 32:0.073899128 #
9.0249168900676601647349592415942e-11 1:110417 2:118.962 3:7.7839999 4:67.269997 5:49.554001 6:-999 7:-999 8:-999 9:2.7820001 10:49.554001 11:60.537998 12:1.063 13:0.35100001 14:-999 15:29.344999 16:1.807 17:-2.6400001 18:31.194 19:0.736 20:-0.072999999 21:43.497002 22:0.139 23:156.63 24:0 25:-999 26:-999 27:-999 28:-999 29:-999 30:-999 31:0 32:0.0015027048 #
-9.0249168900676601647349592415942e-11 1:110400 2:174.07899 3:46.442001 4:144.66499 5:0.419 6:-999 7:-999 8:-999 9:4.2189999 10:0.419 11:50.743 12:1.452 13:-1.391 14:-999 15:20.691999 16:1.392 17:-1.528 18:30.052 19:-2.0780001 20:2.3559999 21:20.785 22:-0.028000001 23:32.007999 24:0 25:-999 26:-999 27:-999 28:-999 29:-999 30:-999 31:-0 32:6.7513614 #
9.0249168900676601647349592415942e-11 1:100078 2:132.35001 3:65.858002 4:106.57 5:124.84 6:5.822 7:1558.7729 8:-8.4230003 9:1.931 10:34.786999 11:303.37 12:3.4790001 13:-0.23999999 14:0.99800003 15:29.167 16:1.7690001 17:1.972 18:101.483 19:0.36199999 20:-2.9890001 21:37.422001 22:-1.862 23:325.37299 24:2 25:101.934 26:3.1389999 27:0.44400001 28:70.786003 29:-2.6830001 30:-0.56699997 31:172.72099 32:0.0015027048 #
-9.0249168900676601647349592415942e-11 1:100111 2:87.523003 3:25.455 4:59.525002 5:85.589996 6:4.868 7:463.181 8:-3.3989999 9:1.739 10:16.239 11:160.67799 12:1.454 13:1.392 14:0.40099999 15:32.183998 16:0.53500003 17:-1.562 18:46.784 19:0.73799998 20:0.16500001 21:33.088001 22:-0.49399999 23:205.065 24:2 25:42.484001 26:0.84500003 27:2.605 28:39.226002 29:-4.0229998 30:2.3139999 31:81.709999 32:0.073899128 #
9.0249168900676601647349592415942e-11 1:110464 2:116.586 3:19.823999 4:80.223 5:56.624001 6:-999 7:-999 8:-999 9:2.7349999 10:29.139 11:118.032 12:1.79 13:1.3710001 14:-999 15:28.926001 16:-0.207 17:1.107 18:51.780998 19:0.51499999 20:-2.5380001 21:26.739 22:-3.0780001 23:213.40199 24:1 25:37.325001 26:2.786 27:0.57200003 28:-999 29:-999 30:-999 31:37.325001 32:0.0015027048 #
-9.0249168900676601647349592415942e-11 1:110328 2:756.987 3:58.622002 4:192.103 5:132.297 6:-999 7:-999 8:-999 9:3.1400001 10:18.186001 11:312.40201 12:0.39300001 13:1.403 14:-999 15:119.551 16:0.72799999 17:-2.875 18:46.964001 19:-0.77499998 20:-0.118 21:119.432 22:-0.92199999 23:371.14899 24:1 25:145.88699 26:-0.56 27:1.684 28:-999 29:-999 30:-999 31:145.88699 32:1.8864655 #
9.0249168900676601647349592415942e-11 1:100150 2:128.16701 3:52.145 4:86.912003 5:103.373 6:0.89999998 7:47.636002 8:4.8080001 9:2.277 10:1.936 11:212.505 12:0.33000001 13:1.205 14:0.090000004 15:81.818001 16:-1.122 17:2.586 18:27.028999 19:-1.54 20:-1.459 21:35.028999 22:2.802 23:292.582 24:2 25:72.405998 26:-2.6889999 27:-0.29499999 28:31.252001 29:-1.788 30:-0.287 31:103.658 32:0.018636117 #
-9.0249168900676601647349592415942e-11 1:100045 2:27.788 3:68.031998 4:23.530001 5:33.375 6:1.37 7:78.189003 8:3.4430001 9:0.77999997 10:10.201 11:132.965 12:1.373 13:-0.77600002 14:0.024 15:26.365 16:0.66399997 17:1.693 18:36.200001 19:0.65600002 20:2.474 21:32.195 22:-0.498 23:233.334 24:2 25:37.734001 26:2.6630001 27:-0.491 28:32.666 29:1.293 30:-2.358 31:70.400002 32:1.9165545 #
9.0249168900676601647349592415942e-11 1:110458 2:117.222 3:25.325001 4:84.253998 5:31.047001 6:-999 7:-999 8:-999 9:2.6659999 10:0.80500001 11:115.103 12:0.89099997 13:1.4119999 14:-999 15:44.605 16:0.24699999 17:-1.679 18:39.738998 19:-0.27000001 20:0.93699998 21:8.625 22:-0.56999999 23:114.942 24:1 25:30.759001 26:2.072 27:2.5869999 28:-999 29:-999 30:-999 31:30.759001 32:0.018636117 #
-9.0249168900676601647349592415942e-11 1:110423 2:91.431 3:20.799 4:69.041 5:65.171997 6:-999 7:-999 8:-999 9:2.256 10:44.126999 11:118.565 12:3.056 13:1.396 14:-999 15:21.76 16:0.082999997 17:-2.5120001 18:66.499001 19:0.28200001 20:-0.264 21:10.712 22:-1.0650001 23:144.028 24:1 25:30.306999 26:-0.333 27:1.8710001 28:-999 29:-999 30:-999 31:30.306999 32:2.2738035 #
9.0249168900676601647349592415942e-11 1:100038 2:138.362 3:38.034 4:99.038002 5:65.021004 6:1.814 7:275.461 8:1.506 9:2.605 10:97.25 11:403.267 12:1.875 13:0.023 14:0 15:21.326 16:1.459 17:-1.615 18:39.993999 19:-1.133 20:-1.869 21:18.093 22:-0.29899999 23:453.69 24:3 25:114.602 26:0.61900002 27:0.16500001 28:77.053001 29:2.4330001 30:-2.6370001 31:341.94699 32:0.018636117 #
-9.0249168900676601647349592415942e-11 1:100192 2:102.362 3:12.116 4:78.300003 5:154.05299 6:4.2610002 7:725.80499 8:-3.5120001 9:1.444 10:71.573997 11:371.57999 12:3.7709999 13:0.792 14:0.44800001 15:30.385 16:-1.1059999 17:-0.24600001 18:114.577 19:-0.89700001 20:-1.674 21:34.002998 22:-1.869 23:483.48099 24:3 25:138.45599 26:-1.117 27:1.4299999 28:54.651001 29:3.1440001 30:0.68800002 31:226.618 32:0.064060777 #
9.0249168900676601647349592415942e-11 1:110452 2:137.944 3:11.672 4:100.906 5:36.095001 6:-999 7:-999 8:-999 9:2.9089999 10:11.485 11:151.767 12:1.6 13:1.3940001 14:-999 15:40.070999 16:-1.567 17:-2.201 18:64.119003 19:-1.699 20:0.70499998 21:9.3109999 22:0.223 23:149.845 24:1 25:47.577 26:2.4960001 27:-2.8299999 28:-999 29:-999 30:-999 31:47.577 32:0.0015027048 #
-9.0249168900676601647349592415942e-11 1:110440 2:108.635 3:56.953999 4:86.248001 5:41.247002 6:-999 7:-999 8:-999 9:2.7130001 10:0.704 11:89.791 12:1.249 13:-0.089000002 14:-999 15:21.325001 16:0.88700002 17:-2.924 18:26.636999 19:-1.821 20:-2.747 21:40.397999 22:-0.64399999 23:193.15199 24:1 25:41.828999 26:-0.96899998 27:1.238 28:-999 29:-999 30:-999 31:41.828999 32:2.826606 #
9.0249168900676601647349592415942e-11 1:100082 2:166.64 3:15.868 4:80.476997 5:77.915001 6:1.575 7:215.121 8:-0.54400003 9:2.8710001 10:28.035 11:410.56799 12:0.69099998 13:1.3099999 14:0.15899999 15:39.441002 16:-0.63999999 17:-2.622 18:27.268999 19:0.79299998 20:1.174 21:69.339996 22:1.541 23:453.14099 24:3 25:85.391998 26:-1.062 27:0.16599999 28:81.558998 29:0.51300001 30:-2.2550001 31:343.858 32:0.0015027048 #
-9.0249168900676601647349592415942e-11 1:100077 2:86.628998 3:33.855999 4:67.5 5:49.081001 6:2.9779999 7:229.16 8:-1.67 9:1.951 10:17.799 11:204.92999 12:1.273 13:-0.69999999 14:0.42199999 15:28.542 16:-0.47600001 17:2.973 18:36.327999 19:-2.1240001 20:1.929 21:12.569 22:0.1 23:215.39301 24:3 25:56.951 26:0.74900001 27:-0.296 28:42.880001 29:-2.2290001 30:-2.825 31:140.06 32:0.30716953 #
9.0249168900676601647349592415942e-11 1:110439 2:96.931999 3:43.221001 4:71.058998 5:21.101999 6:-999 7:-999 8:-999 9:3.437 10:19.013 11:90.872002 12:1.446 13:1.414 14:-999 15:22.223 16:0.18099999 17:-0.44999999 18:32.131001 19:1.762 20:2.7820001 21:20.767 22:-1.5190001 23:170.44701 24:1 25:36.518002 26:1.188 27:1.534 28:-999 29:-999 30:-999 31:36.518002 32:0.0026533112 #
-9.0249168900676601647349592415942e-11 1:110351 2:101.568 3:13.131 4:69.223999 5:212.205 6:-999 7:-999 8:-999 9:0.91500002 10:23.607 11:341.82199 12:0.71499997 13:1.268 14:-999 15:86.942001 16:0.303 17:-1.794 18:62.199001 19:-0.56900001 20:-2.0710001 21:64.503998 22:-1.863 23:317.52802 24:1 25:192.681 26:-0.35499999 27:1.181 28:-999 29:-999 30:-999 31:192.681 32:0.30979514 #
9.0249168900676601647349592415942e-11 1:100183 2:82.335999 3:49.439999 4:54.143002 5:25.746 6:0.91799998 7:69.668999 8:4.6620002 9:2.803 10:22.513 11:117.53 12:1.104 13:1.251 14:0 15:25.759001 16:-0.87099999 17:1.9680001 18:28.440001 19:-0.51300001 20:-0.81199998 21:22.98 22:1.814 23:199.711 24:2 25:32.304001 26:2.6659999 27:2.319 28:31.027 29:1.749 30:-1.4069999 31:63.331001 32:0.018636117 #
-9.0249168900676601647349592415942e-11 1:100090 2:151.45 3:39.326 4:108.268 5:19.726999 6:0.72600001 7:179.399 8:0.87300003 9:3.3870001 10:4.789 11:305.54599 12:1.239 13:1.414 14:0 15:36.337002 16:0.70999998 17:-0.014 18:45.014 19:2.3169999 20:-2.9960001 21:13.612 22:-1.16 23:390.63 24:3 25:86.378998 26:1.365 27:0.155 28:80.424004 29:0.639 30:3.118 31:224.19501 32:1.1135331 #
9.0249168900676601647349592415942e-11 1:110428 2:133.86501 3:30.752001 4:91.272003 5:53.610001 6:-999 7:-999 8:-999 9:2.7190001 10:19.695 11:143.539 12:0.47099999 13:1.402 14:-999 15:63.042 16:-0.32800001 17:-1.878 18:29.715 19:0.51099998 20:1.8200001 21:13.829 22:-2.7420001 23:243.86301 24:1 25:50.782001 26:-4.0289998 27:1.1289999 28:-999 29:-999 30:-999 31:50.782001 32:0.0015027048 #
-9.0249168900676601647349592415942e-11 1:110408 2:79.071999 3:58.136002 4:59.284 5:19.65 6:-999 7:-999 8:-999 9:3.2049999 10:19.65 11:55.216 12:1.512 13:-1.413 14:-999 15:21.982 16:-0.76700002 17:-2.28 18:33.233002 19:0.107 20:0.91900003 21:28.417 22:-1.561 23:101.289 24:0 25:-999 26:-999 27:-999 28:-999 29:-999 30:-999 31:0 32:2.0978591 #
9.0249168900676601647349592415942e-11 1:100031 2:121.681 3:6.0409999 4:73.202003 5:198.114 6:2.6389999 7:295.94199 8:-1.738 9:1.148 10:31.017 11:412.51801 12:0.26199999 13:0.838 14:0.98400003 15:126.071 16:0.95300001 17:2.4920001 18:32.986 19:0.23100001 20:-2.8989999 21:65.089996 22:-2.7690001 23:515.41498 24:3 25:182.44901 26:1.383 27:0.001 28:38.006001 29:-1.257 30:-0.60900003 31:253.461 32:0.0015027048 #
-9.0249168900676601647349592415942e-11 1:100102 2:101.079 3:91.317001 4:79.190002 5:73.322998 6:2.4630001 7:261.76099 8:-1.358 9:2.5999999 10:58.154999 11:338.28299 12:4.0910001 13:-1.411 14:0.65600002 15:20.291 16:-1.279 17:-2.592 18:83.013 19:-1.199 20:0.0070000002 21:47.763 22:1.6289999 23:376.03799 24:3 25:90.445 26:-1.63 27:-1.166 28:58.965 29:0.833 30:3.092 31:234.979 32:0.74405622 #
9.0249168900676601647349592415942e-11 1:110409 2:145.599 3:83.221001 4:88.679001 5:30.083 6:-999 7:-999 8:-999 9:2.76 10:30.083 11:89.166 12:1.2819999 13:-0.068000004 14:-999 15:39.068001 16:1.739 17:-0.54400003 18:50.098 19:1.311 20:3.0120001 21:34.898998 22:-0.32699999 23:130.27699 24:0 25:-999 26:-999 27:-999 28:-999 29:-999 30:-999 31:0 32:0.018636117 #
-9.0249168900676601647349592415942e-11 1:110401 2:105.166 3:12.52 4:69.542 5:47.856998 6:-999 7:-999 8:-999 9:2.461 10:3.023 11:119.783 12:1.1390001 13:1.319 14:-999 15:33.68 16:-1.464 17:-0.18099999 18:38.345001 19:-0.96200001 20:-2.5899999 21:24.101999 22:-2.175 23:147.274 24:1 25:47.758999 26:-1.692 27:1.228 28:-999 29:-999 30:-999 31:47.758999 32:1.9949732 #
9.0249168900676601647349592415942e-11 1:100118 2:118.996 3:2.342 4:72.141998 5:91.566002 6:0.31299999 7:281.95401 8:0.88200003 9:2.267 10:101.716 11:432.48001 12:1.057 13:0.67799997 14:0 15:25.247 16:0.97399998 17:-1.767 18:26.686001 19:-1.2869999 20:-1.941 21:40.108002 22:-2.013 23:500.16699 24:3 25:148.174 26:1.109 27:-1.21 28:140.81799 29:0.796 30:1.344 31:380.547 32:0.0015027048 #
-9.0249168900676601647349592415942e-11 1:100105 2:208.573 3:6.8540001 4:154.336 5:57.028 6:2.6849999 7:183.75301 8:0.026000001 9:3.5810001 10:5.6459999 11:161.078 12:2.0639999 13:1.362 14:0.60100001 15:20.506001 16:-1.017 17:0.75800002 18:42.328999 19:2.3110001 20:-0.56300002 21:5.651 22:-0.116 23:254.58501 24:2 25:66.774002 26:0.0099999998 27:-2.7309999 28:31.469999 29:2.6949999 30:1.342 31:98.242996 32:0.74405622 #
9.0249168900676601647349592415942e-11 1:110426 2:115.656 3:31.304001 4:75.440002 5:39.422001 6:-999 7:-999 8:-999 9:3.0940001 10:0.252 11:114.349 12:0.93800002 13:1.414 14:-999 15:38.721001 16:-0.28299999 17:3.0039999 18:36.306 19:-0.50400001 20:-0.082000002 21:39.216 22:0.77399999 23:84.886002 24:1 25:39.321999 26:1.9630001 27:-2.2809999 28:-999 29:-999 30:-999 31:39.321999 32:0.0015027048 #
-9.0249168900676601647349592415942e-11 1:110375 2:82.132004 3:6.1430001 4:44.299 5:152.41299 6:-999 7:-999 8:-999 9:1.145 10:22.923 11:218.16901 12:0.62099999 13:0.21600001 14:-999 15:46.481998 16:-1.224 17:2.4630001 18:28.871 19:-0.079999998 20:2.415 21:77.566002 22:2.2850001 23:310.625 24:1 25:142.81599 26:-0.74400002 27:-0.63599998 28:-999 29:-999 30:-999 31:142.81599 32:0.073899128 #
9.0249168900676601647349592415942e-11 1:100042 2:122.516 3:50.182999 4:87.681999 5:102.403 6:3.28 7:479.59 8:-2.5639999 9:1.881 10:0.73100001 11:297.48999 12:0.477 13:1.025 14:0.63099998 15:77.097 16:-0.303 17:-2.694 18:36.745998 19:-0.75800002 20:1.7640001 21:27.921 22:-2.7190001 23:275.22198 24:2 25:98.197998 26:1.995 27:0.96100003 28:85.447998 29:-1.285 30:-0.995 31:183.646 32:0.0015027048 #
-9.0249168900676601647349592415942e-11 1:106142 2:287.82001 3:32.890999 4:212.599 5:9.6700001 6:-999 7:-999 8:-999 9:4.7690001 10:9.6700001 11:58.18 12:1.267 13:-1.3 14:-999 15:25.664 16:2.3610001 17:2.2780001 18:32.515999 19:-1.598 20:-1.345 21:8.4820004 22:1.517 23:76.491997 24:0 25:-999 26:-999 27:-999 28:-999 29:-999 30:-999 31:-0 32:2.9207873 #
9.0249168900676601647349592415942e-11 1:110414 2:107.413 3:28.486 4:80.394997 5:83.795998 6:-999 7:-999 8:-999 9:1.852 10:34.271999 11:165.272 12:1.946 13:1.411 14:-999 15:34.713001 16:1.155 17:0.175 18:67.563004 19:0.51700002 20:1.914 21:14.362 22:0.96499997 23:313.41699 24:1 25:62.997002 26:-2.335 27:-2.184 28:-999 29:-999 30:-999 31:62.997002 32:0.018636117 #
-9.0249168900676601647349592415942e-11 1:110380 2:374.64099 3:69.511002 4:195.713 5:93.427002 6:-999 7:-999 8:-999 9:3.484 10:0.81800002 11:195.27 12:1.192 13:1.409 14:-999 15:46.814999 16:2.2019999 17:-1.728 18:55.819 19:-0.37799999 20:2.2130001 21:54.457001 22:-2.7060001 23:252.944 24:1 25:92.637001 26:-0.347 27:0.264 28:-999 29:-999 30:-999 31:92.637001 32:2.64412 #
9.0249168900676601647349592415942e-11 1:100248 2:102.9 3:3.885 4:69.112 5:90.655998 6:0.66100001 7:115.48 8:8.6969995 9:2.1889999 10:33.205002 11:240.088 12:2.362 13:0.898 14:0 15:25.209999 16:-1.5880001 17:-3.092 18:59.535 19:-1.403 20:1.01 21:44.032001 22:0.93400002 23:198.739 24:3 25:65.292 26:-2.6370001 27:-0.87300003 28:56.255001 29:-3.2980001 30:-3.013 31:155.343 32:0.018636117 #
-9.0249168900676601647349592415942e-11 1:100205 2:157.09599 3:23.205999 4:113.793 5:96.564003 6:2.675 7:349.03799 8:-0.57499999 9:2.517 10:62.571999 11:359.50601 12:0.27399999 13:1.398 14:0.30599999 15:112.133 16:0.773 17:0.79100001 18:30.721001 19:0.354 20:-1.6900001 21:8.0539999 22:-0.030999999 23:544.51599 24:3 25:95.508003 26:-2.4400001 27:2.2869999 28:84.755997 29:0.236 30:-2.2309999 31:216.653 32:0.30097511 #
9.0249168900676601647349592415942e-11 1:110337 2:-999 3:123.415 4:66.142998 5:1.181 6:-999 7:-999 8:-999 9:1.4579999 10:1.181 11:93.224998 12:1.25 13:-1.402 14:-999 15:41.433998 16:-1.115 17:-2.8929999 18:51.791 19:-2.006 20:2.237 21:78.113998 22:-0.41499999 23:112.18 24:0 25:-999 26:-999 27:-999 28:-999 29:-999 30:-999 31:-0 32:0.0026533112 #
-9.0249168900676601647349592415942e-11 1:110434 2:-999 3:81.752998 4:14.9 5:27.358999 6:-999 7:-999 8:-999 9:0.56199998 10:27.358999 11:53.029999 12:1.296 13:-0.38699999 14:-999 15:23.098 16:-1.063 17:1.316 18:29.931 19:-1.525 20:1.6339999 21:57.620998 22:-1.152 23:101.573 24:0 25:-999 26:-999 27:-999 28:-999 29:-999 30:-999 31:0 32:4.4996457 #
9.0249168900676601647349592415942e-11 1:100097 2:124.575 3:34.557999 4:100.197 5:161.05099 6:3.243 7:324.59698 8:-2.6259999 9:1.479 10:61.347 11:315.354 12:2.9130001 13:0.227 14:0.32800001 15:36.695 16:0.21799999 17:-0.56300002 18:106.897 19:1.648 20:-0.93699998 21:25.565001 22:-1.6109999 23:432.241 24:3 25:97.160004 26:-1.686 27:2.858 28:42.807999 29:1.557 30:1.534 31:171.763 32:0.018636117 #
-9.0249168900676601647349592415942e-11 1:100128 2:96.894997 3:34.243 4:60.566002 5:88.017998 6:0.69 7:61.257 8:2.7309999 9:1.7920001 10:2.427 11:178.85699 12:0.79799998 13:1.411 14:0.398 15:43.334 16:1.885 17:-0.14300001 18:34.569 19:2.02 20:-1.9299999 21:38.769001 22:-0.95700002 23:198.51601 24:2 25:59.282001 26:2.033 27:2.6029999 28:41.671001 29:1.3430001 30:1.587 31:100.953 32:0.073899128 #
9.0249168900676601647349592415942e-11 1:110410 2:111.633 3:3.293 4:63.245998 5:94.056 6:-999 7:-999 8:-999 9:2.132 10:8.401 11:158.946 12:1.398 13:1.069 14:-999 15:30.549 16:1.166 17:2.9649999 18:42.715 19:1.191 20:0.833 21:62.848 22:0.89700001 23:244.873 24:1 25:85.682999 26:2.559 27:-1.993 28:-999 29:-999 30:-999 31:85.682999 32:0.0015027048 #
-9.0249168900676601647349592415942e-11 1:110441 2:161.478 3:77.785004 4:136.095 5:91.601997 6:-999 7:-999 8:-999 9:1.865 10:28.414 11:237.196 12:1.576 13:-1.354 14:-999 15:67.481003 16:-1.507 17:-3.0880001 18:106.329 19:-1.558 20:1.331 21:22.764 22:-0.493 23:343.89001 24:1 25:63.387001 26:1.148 27:-1.284 28:-999 29:-999 30:-999 31:63.387001 32:1.964702 #
9.0249168900676601647349592415942e-11 1:100103 2:130.123 3:8.2510004 4:81.732002 5:81.065002 6:3.0220001 7:262.12799 8:-2.1199999 9:2.1110001 10:51.577 11:237.168 12:0.71600002 13:1.199 14:0.995 15:49.824001 16:0.78399998 17:3.1270001 18:35.669998 19:-0.292 20:1.311 21:35.507999 22:1.544 23:363.616 24:3 25:73.260002 26:-1.915 27:-1.6619999 28:41.356998 29:1.107 30:1.3 31:151.674 32:0.0015027048 #
-9.0249168900676601647349592415942e-11 1:100243 2:88.147003 3:76.136002 4:67.593002 5:130.09399 6:2.5409999 7:455.95599 8:-1.614 9:1.119 10:43.033001 11:466.65799 12:0.56 13:0.018999999 14:0.61699998 15:83.014999 16:0.317 17:-1.671 18:46.492001 19:0.85399997 20:-0.69 21:43.029999 22:-2.7260001 23:493.121 24:3 25:230.617 26:1.242 27:1.609 28:61.046001 29:-1.299 30:-1.247 31:337.151 32:0.071357138 #
9.0249168900676601647349592415942e-11 1:110392 2:121.51 3:14.84 4:79.563004 5:10.645 6:-999 7:-999 8:-999 9:2.757 10:10.645 11:85.961998 12:0.5 13:-1.285 14:-999 15:57.304001 16:-0.685 17:-2.948 18:28.658001 19:-0.69400001 20:-0.19 21:22.493999 22:0.403 23:155.397 24:0 25:-999 26:-999 27:-999 28:-999 29:-999 30:-999 31:0 32:0.018636117 #
-9.0249168900676601647349592415942e-11 1:110372 2:172.017 3:70.658997 4:113.749 5:3.526 6:-999 7:-999 8:-999 9:3.1300001 10:3.526 11:105.908 12:1.511 13:-1.36 14:-999 15:42.185001 16:-0.73100001 17:2.5669999 18:63.723 19:0.152 20:-0.43599999 21:19.729 22:2.8759999 23:83.653 24:0 25:-999 26:-999 27:-999 28:-999 29:-999 30:-999 31:0 32:4.8752112 #
9.0249168900676601647349592415942e-11 1:100462 2:129.82401 3:7.6110001 4:59.337002 5:530.30298 6:1.956 7:365.26501 8:-0.34299999 9:0.87400001 10:65.115997 11:692.07898 12:3.9389999 13:0.91799998 14:0.117 15:33.619999 16:-1.4170001 17:-2.8329999 18:132.43401 19:-0.64999998 20:3.0320001 21:367.354 22:2.9979999 23:632.44598 24:3 25:444.03601 26:-0.19499999 27:-0.20299999 28:43.550999 29:1.761 30:0.89499998 31:526.02502 32:0.0015018701 #
-9.0249168900676601647349592415942e-11 1:100319 2:99.569 3:10.435 4:81.431 5:435.69501 6:1.4069999 7:451.64099 8:0.514 9:0.52700001 10:32.233002 11:1062.665 12:0.197 13:1.414 14:0 15:352.608 16:1.21 17:-2.5880001 18:69.328003 19:1.138 20:-2.066 21:21.836 22:-2.335 23:1069.999 24:3 25:406.435 26:-0.301 27:0.405 28:132.52 29:-1.7079999 30:1.67 31:640.72803 32:0.064060777 #
9.0249168900676601647349592415942e-11 1:110398 2:121.499 3:60.243 4:76.446999 5:44.236 6:-999 7:-999 8:-999 9:2.677 10:1.783 11:124.895 12:0.81900001 13:1.215 14:-999 15:43.362 16:0.70899999 17:1.959 18:35.515999 19:0.62300003 20:-1.649 21:28.097 22:2.105 23:140.896 24:1 25:46.016998 26:1.979 27:-0.71100003 28:-999 29:-999 30:-999 31:46.016998 32:0.0015027048 #
-9.0249168900676601647349592415942e-11 1:110378 2:97.938004 3:69.087997 4:63.094002 5:1.7819999 6:-999 7:-999 8:-999 9:2.7490001 10:1.7819999 11:66.344002 12:2.016 13:-1.345 14:-999 15:21.997 16:-0.72500002 17:1.339 18:44.347 19:-0.211 20:-2.243 21:27.917 22:0.51599997 23:39.403999 24:0 25:-999 26:-999 27:-999 28:-999 29:-999 30:-999 31:0 32:4.8816957 #
9.0249168900676601647349592415942e-11 1:100339 2:101.892 3:4.4910002 4:74.265999 5:210.224 6:1.895 7:341.207 8:-0.039999999 9:1.0470001 10:105.592 11:604.71899 12:0.199 13:0.76300001 14:0.186 15:156.02299 16:-0.58099997 17:-1.823 18:31.004 19:0.30199999 20:-1.261 21:32.285999 22:-1.119 23:658.40601 24:3 25:162.554 26:0.021 27:1.5319999 28:109.038 29:-1.874 30:0.105 31:417.69199 32:0.0015018701 #
-9.0249168900676601647349592415942e-11 1:100206 2:170.48801 3:21.504999 4:83.300003 5:70.737 6:0.463 7:246.98399 8:-0.039000001 9:2.7490001 10:78.918999 11:405.508 12:0.60399997 13:1.3609999 14:0.077 15:51.719002 16:0.45699999 17:0.93599999 18:31.256001 19:-0.25099999 20:-2.6900001 21:66.793999 22:3.118 23:448.40201 24:3 25:127.039 26:-0.111 27:2.1659999 28:115.897 29:0.352 30:-0.62199998 31:322.53299 32:0.35854 #
9.0249168900676601647349592415942e-11 1:110350 2:156.51199 3:61.504002 4:103.667 5:2.918 6:-999 7:-999 8:-999 9:3.1949999 10:2.918 11:89.611 12:1.5420001 13:-1.381 14:-999 15:35.252998 16:-1.3839999 17:-2.0769999 18:54.359001 19:-0.177 20:1.247 21:17.802 22:-1.592 23:130.92101 24:0 25:-999 26:-999 27:-999 28:-999 29:-999 30:-999 31:-0 32:0.018636117 #
-9.0249168900676601647349592415942e-11 1:110374 2:255.478 3:11.355 4:176.16499 5:30.042999 6:-999 7:-999 8:-999 9:3.1559999 10:2.0439999 11:202.76801 12:0.68199998 13:-1.414 14:-999 15:102.399 16:-0.35600001 17:-1.4400001 18:69.871002 19:0.21799999 20:1.74 21:3.375 22:0.98199999 23:214.76199 24:1 25:30.497 26:1.056 27:1.753 28:-999 29:-999 30:-999 31:30.497 32:1.8372296 #
9.0249168900676601647349592415942e-11 1:100236 2:126.547 3:48.914001 4:81.235001 5:195.293 6:0.91600001 7:128.741 8:2.503 9:1.196 10:7.3909998 11:357.961 12:0.89999998 13:1.368 14:0.792 15:74.546997 16:-2.3469999 17:-2.7019999 18:67.110001 19:-1.868 20:2.4860001 21:74.667 22:-3.092 23:350.755 24:2 25:126.04 26:-2.105 27:-0.322 28:90.264 29:-1.189 30:0.405 31:216.304 32:0.0015027048 #
-9.0249168900676601647349592415942e-11 1:106035 2:86.135002 3:58.422001 4:65.036003 5:17.811001 6:2.5680001 7:130.65199 8:-1.618 9:1.877 10:32.907001 11:148.142 12:0.85100001 13:-1.411 14:0.116 15:43.629002 16:1.835 17:1.015 18:37.132999 19:1.71 20:-0.85799998 21:30.358999 22:-2.9679999 23:370.69501 24:2 25:34.577 26:1.108 27:0.90200001 28:32.801998 29:-1.46 30:-1.7539999 31:67.379997 32:1.7613201 #
9.0249168900676601647349592415942e-11 1:110399 2:115.99 3:33.599998 4:81.904999 5:92.661003 6:-999 7:-999 8:-999 9:1.874 10:15.135 11:187.061 12:0.51099998 13:1.364 14:-999 15:70.081001 16:0.43799999 17:-0.634 18:35.800999 19:0.82999998 20:-2.467 21:22.732 22:-1.207 23:269.72699 24:1 25:81.178001 26:2.704 27:2.0899999 28:-999 29:-999 30:-999 31:81.178001 32:0.0015027048 #
-9.0249168900676601647349592415942e-11 1:110438 2:206.271 3:98.195999 4:139.564 5:42.646999 6:-999 7:-999 8:-999 9:2.858 10:27.507999 11:173.05901 12:1.12 13:-0.384 14:-999 15:57.512001 16:2.1289999 17:3.0220001 18:64.406998 19:0.958 20:0.41499999 21:37.768002 22:-2.9170001 23:298.80399 24:1 25:51.139 26:-0.257 27:-1.177 28:-999 29:-999 30:-999 31:51.139 32:2.1872225 #
9.0249168900676601647349592415942e-11 1:100070 2:120.253 3:30.143999 4:82.176003 5:38.736 6:3.918 7:407.57901 8:-3.457 9:2.5510001 10:46.300999 11:243.103 12:1.017 13:1.4 14:0.43399999 15:39.923 16:1.9630001 17:0.061999999 18:40.602001 19:1.174 20:-2.3640001 21:11.126 22:-0.78799999 23:337.55899 24:3 25:59.401001 26:1.342 27:-0.36899999 28:53.710999 29:-2.5769999 30:2.1400001 31:162.577 32:0.0015027048 #
-9.0249168900676601647349592415942e-11 1:100202 2:98.230003 3:37.252998 4:63.675999 5:32.619999 6:4.2969999 7:278.81201 8:-2.5929999 9:2.812 10:20.976 11:161.533 12:0.778 13:1.41 14:1 15:36.563 16:1.376 17:2.8540001 18:28.441 19:1.455 20:0.043000001 21:19.451 22:1.8710001 23:225.076 24:3 25:32.368 26:3.5710001 27:-0.81900001 28:32.081001 29:-0.72600001 30:-2.802 31:96.528999 32:0.073899128 #
9.0249168900676601647349592415942e-11 1:110402 2:121.583 3:15.315 4:67.876999 5:58.280998 6:-999 7:-999 8:-999 9:2.6010001 10:0.368 11:124.336 12:0.83700001 13:1.3279999 14:-999 15:36.134998 16:0.012 17:1.569 18:30.261 19:-0.76300001 20:-2.2320001 21:44.332001 22:-2.6530001 23:129.94901 24:1 25:57.939999 26:3.7639999 27:0.15000001 28:-999 29:-999 30:-999 31:57.939999 32:0.0015027048 #
-9.0249168900676601647349592415942e-11 1:110382 2:75.085999 3:26.964001 4:41.698002 5:116.985 6:-999 7:-999 8:-999 9:1.4400001 10:6.296 11:190.532 12:2.128 13:1.376 14:-999 15:21.502001 16:-1.03 17:-2.2130001 18:45.75 19:-1.323 20:-0.80400002 21:63.539001 22:-1.3099999 23:260.728 24:1 25:123.28 26:-1.521 27:1.878 28:-999 29:-999 30:-999 31:123.28 32:1.6816114 #
9.0249168900676601647349592415942e-11 1:100249 2:91.254997 3:34.473999 4:69.843002 5:113.02 6:1.124 7:103.034 8:0.142 9:1.298 10:5.2600002 11:253.423 12:0.29899999 13:-0.086000003 14:0.96100003 15:93.450996 16:0.41999999 17:-2.8110001 18:27.952999 19:-0.78899997 20:3.0020001 21:20.992001 22:1.419 23:374.10101 24:2 25:89.112999 26:-1.239 27:-0.34099999 28:42.907001 29:-0.115 30:0.79000002 31:132.019 32:0.018636117 #
-9.0249168900676601647349592415942e-11 1:100174 2:89.655998 3:49.625999 4:64.116997 5:22.802 6:0.191 7:144.187 8:0.13699999 9:2.665 10:27.844999 11:210.685 12:1.001 13:-1.411 14:0 15:32.855 16:2.1819999 17:-2.563 18:32.881001 19:2 20:1.062 21:37.705002 22:-0.50199997 23:234.605 24:2 25:78.115997 26:0.47799999 27:-1.302 28:66.832001 29:0.287 30:2.168 31:144.94901 32:1.4548485 #
9.0249168900676601647349592415942e-11 1:110373 2:106.646 3:0.37200001 4:71.234001 5:33.994999 6:-999 7:-999 8:-999 9:3.0450001 10:25.497 11:109.994 12:1.418 13:1.061 14:-999 15:28.048 16:-1.65 17:1.604 18:39.762001 19:-0.903 20:-1.348 21:21.322001 22:-1.335 23:180.571 24:1 25:42.183998 26:1.472 27:2.6070001 28:-999 29:-999 30:-999 31:42.183998 32:0.018636117 #
-9.0249168900676601647349592415942e-11 1:110377 2:114.664 3:8.8149996 4:70.170998 5:64.121002 6:-999 7:-999 8:-999 9:3.128 10:1.119 11:137.62 12:1.681 13:1.413 14:-999 15:27.040001 16:-2.303 17:1.851 18:45.462002 19:-2.2379999 20:-1.276 21:45.889 22:-1.0829999 23:157.403 24:1 25:65.116997 26:-1.0779999 27:2.017 28:-999 29:-999 30:-999 31:65.116997 32:1.6816114 #
9.0249168900676601647349592415942e-11 1:100147 2:108.351 3:28.257 4:70.581001 5:185.138 6:2.5940001 7:301.022 8:-0.97100002 9:1.149 10:3.4619999 11:304.978 12:1.13 13:1.405 14:0.52399999 15:57.237999 16:1.011 17:1.677 18:64.669998 19:1.885 20:0.93199998 21:71.672997 22:1.35 23:370.728 24:2 25:115.476 26:-0.454 27:-1.756 28:67.594002 29:2.1400001 30:-1.937 31:183.07001 32:0.0015027048 #
-9.0249168900676601647349592415942e-11 1:100368 2:92.945 3:12.796 4:69.181999 5:128.60699 6:3.8050001 7:842.146 8:-3.0780001 9:1.273 10:33.609001 11:441.513 12:2.043 13:0.70899999 14:0.21799999 15:39.550999 16:2.1900001 17:-2.5840001 18:80.795998 19:1.612 20:-1.45 21:28.950001 22:-1.1849999 23:412.00201 24:3 25:217.017 26:1.1670001 27:1.7359999 28:70.039001 29:-2.638 30:-0.84899998 31:321.16599 32:0.30716953 #
9.0249168900676601647349592415942e-11 1:110364 2:91.475998 3:54.285 4:72.208 5:2.8570001 6:-999 7:-999 8:-999 9:2.349 10:69.339996 11:135.604 12:0.65100002 13:-1.391 14:-999 15:41.859001 16:-1.365 17:-2.2149999 18:27.261999 19:-0.125 20:2.0739999 21:41.830002 22:0.206 23:227.612 24:1 25:66.483002 26:-2.773 27:-0.34799999 28:-999 29:-999 30:-999 31:66.483002 32:0.0015027048 #
-9.0249168900676601647349592415942e-11 1:110405 2:98.477997 3:76.031998 4:62.701 5:0.72299999 6:-999 7:-999 8:-999 9:2.6819999 10:0.72299999 11:67.599998 12:2.2880001 13:-1.312 14:-999 15:20.559999 16:0.602 17:2.0999999 18:47.040001 19:1.166 20:-0.52100003 21:31.545 22:2.9449999 23:115.528 24:0 25:-999 26:-999 27:-999 28:-999 29:-999 30:-999 31:0 32:4.9981785 #
9.0249168900676601647349592415942e-11 1:100158 2:121.672 3:15.675 4:95.441002 5:95.014999 6:3.0150001 7:329.862 8:-2.142 9:1.572 10:33.806999 11:398.35599 12:1.1950001 13:-1.137 14:0.69099998 15:61.650002 16:0.47499999 17:-1.312 18:73.676003 19:0.55500001 20:-2.882 21:1.452 22:1.682 23:375.84201 24:3 25:93.767998 26:1.146 27:1.909 28:53.862 29:-1.87 30:-0.189 31:263.03 32:0.0026533112 #
-4.3317246631755456330592490843401e-11 1:100164 2:125.207 3:8.1899996 4:84.891998 5:72.997002 6:0.833 7:40.888 8:-0.037 9:2.033 10:33.702999 11:160.645 12:0.60699999 13:0.69099998 14:0.014 15:57.573002 16:-0.154 17:2.7509999 18:34.924999 19:-1.232 20:1.028 21:28.343 22:0.76700002 23:241.048 24:2 25:38.067001 26:0.046 27:-2.201 28:30.079 29:-0.787 30:-1.39 31:68.147003 32:0.064060777 #
9.0249168900676601647349592415942e-11 1:110342 2:156.293 3:82.114998 4:107.513 5:14.011 6:-999 7:-999 8:-999 9:2.9360001 10:14.011 11:109.369 12:1.362 13:-1.41 14:-999 15:46.298 16:-0.192 17:0.82499999 18:63.070999 19:-0.204 20:-2.523 21:31.613001 22:-0.189 23:137.927 24:0 25:-999 26:-999 27:-999 28:-999 29:-999 30:-999 31:0 32:0.018636117 #
-9.0249168900676601647349592415942e-11 1:110298 2:82.254997 3:9.7930002 4:45.681 5:246.239 6:-999 7:-999 8:-999 9:0.73100001 10:6.1810002 11:378.715 12:1.587 13:0.713 14:-999 15:48.834 16:-1.017 17:-2.2909999 18:77.498001 19:-0.34599999 20:-2.582 21:122.573 22:-2.6830001 23:354.853 24:1 25:252.383 26:-0.458 27:0.56900001 28:-999 29:-999 30:-999 31:252.383 32:1.6816114 #
9.0249168900676601647349592415942e-11 1:100106 2:91.615997 3:0.245 4:62.841999 5:13.974 6:3.655 7:448.409 8:-1.74 9:3.102 10:7.6300001 11:203.75 12:0.95599997 13:0.61799997 14:0.396 15:32.02 16:0.66000003 17:0.98799998 18:30.618 19:0.495 20:-2.198 21:15.291 22:-2.187 23:245.168 24:2 25:78.349998 26:-3.092 27:0.13600001 28:62.761002 29:0.56300002 30:3.0650001 31:141.11099 32:0.0015027048 #
-9.0249168900676601647349592415942e-11 1:100240 2:110.481 3:42.055 4:73.886002 5:49.852001 6:3.6600001 7:385.784 8:-1.249 9:2.609 10:45.279999 11:216.752 12:0.99400002 13:1.098 14:0.024 15:29.233 16:-0.38699999 17:3.1199999 18:29.056999 19:-2.0799999 20:-1.178 21:23.218 22:-3.0650001 23:268.76001 24:3 25:62.429001 26:-0.38100001 27:-0.061999999 28:57.914001 29:3.279 30:3.052 31:158.463 32:0.083414033 #
9.0249168900676601647349592415942e-11 1:110370 2:134.299 3:25.573999 4:73.806999 5:63.310001 6:-999 7:-999 8:-999 9:3.148 10:4.658 11:122.485 12:1.142 13:1.398 14:-999 15:28.08 16:-0.653 17:0.875 18:32.057999 19:0.704 20:-2.5669999 21:54.094002 22:3.092 23:163.464 24:1 25:62.347 26:-1.322 27:-0.035 28:-999 29:-999 30:-999 31:62.347 32:0.0015018701 #
-9.0249168900676601647349592415942e-11 1:110381 2:142.241 3:58.480999 4:87.603996 5:3.6010001 6:-999 7:-999 8:-999 9:3.283 10:3.6010001 11:78.403999 12:1.466 13:-1.16 14:-999 15:31.796 16:2.2219999 17:2.6099999 18:46.608002 19:1.184 20:-0.55900002 21:18.344999 22:2.5769999 23:124.055 24:0 25:-999 26:-999 27:-999 28:-999 29:-999 30:-999 31:-0 32:4.9679861 #
9.0249168900676601647349592415942e-11 1:100295 2:131.08701 3:25.25 4:85.624001 5:82.271004 6:0.33399999 7:77.456001 8:0.15099999 9:2.151 10:29.478001 11:181.464 12:0.88499999 13:1.387 14:0 15:47.908001 16:0.32100001 17:2.7309999 18:42.377998 19:1.219 20:0.77600002 21:33.005001 22:1.465 23:227.23399 24:2 25:51.466 26:-0.58899999 27:-2.223 28:39.712002 29:-0.25600001 30:-0.29300001 31:91.177002 32:0.0026533112 #
-9.0249168900676601647349592415942e-11 1:100178 2:75.733002 3:90.985001 4:58.981998 5:46.241001 6:0.71799999 7:114.918 8:0.001 9:1.745 10:24.190001 11:202.10001 12:2.6210001 13:-0.44400001 14:0 15:23.745001 16:-2.3889999 17:0.43599999 18:62.229 19:-2.2720001 20:-1.306 21:34.833 22:1.4069999 23:234.01401 24:2 25:80.927002 26:0.001 27:-2.954 28:35.200001 29:0.72000003 30:0.189 31:116.126 32:1.0340997 #
9.0249168900676601647349592415942e-11 1:110335 2:119.075 3:19.069 4:79.675003 5:22.566999 6:-999 7:-999 8:-999 9:3.0050001 10:22.566999 11:83.650002 12:0.53799999 13:-1.414 14:-999 15:54.375 16:-2.076 17:2.483 18:29.275 19:-2.0039999 20:-0.79500002 21:8.2410002 22:0.52700001 23:158.472 24:0 25:-999 26:-999 27:-999 28:-999 29:-999 30:-999 31:-0 32:0.018636117 #
-9.0249168900676601647349592415942e-11 1:110369 2:176.11099 3:63.847 4:125.393 5:25.860001 6:-999 7:-999 8:-999 9:3.9070001 10:25.860001 11:68.091003 12:1.318 13:1.41 14:-999 15:29.379999 16:0.77499998 17:0.36000001 18:38.710999 19:-1.689 20:-2.6719999 21:29.718 22:-0.22 23:147.209 24:0 25:-999 26:-999 27:-999 28:-999 29:-999 30:-999 31:-0 32:2.7727058 #
9.0249168900676601647349592415942e-11 1:100311 2:87.603996 3:28.921 4:49.188999 5:139.196 6:1.325 7:175.466 8:-0.37 9:1.4 10:39.423 11:308.18201 12:2.056 13:1.413 14:0.94599998 15:24.556999 16:-1.071 17:0.29699999 18:50.493 19:-0.106 20:-0.71700001 21:72.861 22:-0.235 23:347.68201 24:3 25:144.005 26:-0.92500001 27:2.8789999 28:47.203999 29:0.40000001 30:1.11 31:233.132 32:0.0015018701 #
-9.0249168900676601647349592415942e-11 1:100188 2:172.577 3:95.195 4:89.845001 5:24.768 6:1.441 7:108.022 8:-0.46399999 9:2.8840001 10:3.4749999 11:179.177 12:2.0190001 13:1.127 14:0.056000002 15:30.292 16:-0.78600001 17:-1.552 18:61.146 19:-1.4579999 20:1.253 21:38.485001 22:-1.5 23:164.627 24:2 25:54.237 26:0.48699999 27:3.04 28:33.501999 29:-0.954 30:0.255 31:87.738998 32:2.1425231 #
9.0249168900676601647349592415942e-11 1:110325 2:96.508003 3:49.251999 4:66.216003 5:2.776 6:-999 7:-999 8:-999 9:2.8629999 10:2.776 11:68.416 12:1.541 13:-1.3660001 14:-999 15:26.92 16:-0.64200002 17:0.47 18:41.495998 19:-0.60799998 20:-2.951 21:15.05 22:-0.152 23:137.463 24:0 25:-999 26:-999 27:-999 28:-999 29:-999 30:-999 31:-0 32:0.018636117 #
-9.0249168900676601647349592415942e-11 1:110391 2:109.399 3:54.424999 4:83.344002 5:29.084999 6:-999 7:-999 8:-999 9:3.135 10:29.084999 11:83.323997 12:1.041 13:1.414 14:-999 15:40.825001 16:2.099 17:1.086 18:42.499001 19:2.1530001 20:-2.063 21:29.089001 22:2.45 23:200.433 24:0 25:-999 26:-999 27:-999 28:-999 29:-999 30:-999 31:0 32:0.30979514 #
9.0249168900676601647349592415942e-11 1:100280 2:109.909 3:31.504 4:68.589996 5:120.18 6:2.678 7:153.461 8:-1.6160001 9:1.641 10:43.917999 11:175.259 12:1.128 13:1.406 14:0.99800003 15:42.056999 16:-1.209 17:-1.322 18:47.433998 19:-0.477 20:0.147 21:53.692001 22:-0.48800001 23:221.489 24:2 25:43.987 26:-1.7589999 27:2.2420001 28:41.780998 29:0.91900003 30:2.4990001 31:85.767998 32:0.018636117 #
-9.0249168900676601647349592415942e-11 1:100274 2:63.466999 3:33.514 4:34.928001 5:104.363 6:3.3299999 7:388.32401 8:-2.6919999 9:1.25 10:2.523 11:233.916 12:1.52 13:1.377 14:0.42699999 15:23.966 16:-1.573 17:-1.436 18:36.439999 19:-1.252 20:-0.228 21:55.348 22:-0.99299997 23:262.60001 24:2 25:136.8 26:-1.381 27:2.3829999 28:36.709999 29:1.949 30:-0.484 31:173.50999 32:0.30979514 #
9.0249168900676601647349592415942e-11 1:110315 2:103.745 3:38.304001 4:78.634003 5:4.7969999 6:-999 7:-999 8:-999 9:2.862 10:4.7969999 11:78.281998 12:1.084 13:-1.405 14:-999 15:37.563999 16:-0.68599999 17:2.3080001 18:40.719002 19:-0.324 20:-1.137 21:10.46 22:1.2410001 23:112.97 24:0 25:-999 26:-999 27:-999 28:-999 29:-999 30:-999 31:0 32:0.018636117 #
-9.0249168900676601647349592415942e-11 1:110384 2:125.351 3:68.510002 4:90.782997 5:45.730999 6:-999 7:-999 8:-999 9:2.4170001 10:45.730999 11:104.235 12:2.27 13:0.55699998 14:-999 15:31.875999 16:0.852 17:1.921 18:72.358002 19:1.1720001 20:-0.47400001 21:17.455 22:2.128 23:129.813 24:0 25:-999 26:-999 27:-999 28:-999 29:-999 30:-999 31:0 32:2.2028427 #
9.0249168900676601647349592415942e-11 1:100046 2:201.47301 3:23.002001 4:104.041 5:60.490002 6:4.4369998 7:491.375 8:-4.9159999 9:2.9679999 10:1.786 11:247.731 12:0.257 13:1.408 14:0.68800002 15:102.618 16:-1.475 17:2.4089999 18:26.334 19:-1.281 20:-0.91299999 21:47.249001 22:-1.577 23:337.39801 24:2 25:86.446999 26:-2.142 27:0.29800001 28:32.332001 29:2.2950001 30:-2.273 31:118.779 32:0.018636117 #
-9.0249168900676601647349592415942e-11 1:104885 2:90.500999 3:48.672001 4:37.375 5:136.092 6:0.53399998 7:113.869 8:0.329 9:1.388 10:0.78399998 11:224.98599 12:1.27 13:1.126 14:0.92500001 15:24.17 16:1.603 17:3.0639999 18:30.704 19:0.708 20:2.003 21:92.358002 22:2.9519999 23:251.869 24:2 25:118.11 26:0.89999998 27:0.039999999 28:52.001999 29:0.366 30:-1.382 31:170.112 32:1.4548485 #
9.0249168900676601647349592415942e-11 1:110300 2:118.455 3:6.6750002 4:87.981003 5:25.316999 6:-999 7:-999 8:-999 9:2.701 10:25.316999 11:89.556 12:1.084 13:-0.29499999 14:-999 15:42.983002 16:-0.075999998 17:-1.437 18:46.573002 19:-0.336 20:2.158 21:12.657 22:1.882 23:152.584 24:0 25:-999 26:-999 27:-999 28:-999 29:-999 30:-999 31:0 32:0.018636117 #
-9.0249168900676601647349592415942e-11 1:110367 2:76.125 3:41.214001 4:53.368 5:18.562 6:-999 7:-999 8:-999 9:2.5550001 10:18.562 11:57.095001 12:1.7180001 13:0.458 14:-999 15:21.004 16:1.37 17:-1.3049999 18:36.091 19:1.705 20:2.4449999 21:12.279 22:-1.108 23:147.933 24:0 25:-999 26:-999 27:-999 28:-999 29:-999 30:-999 31:0 32:2.1159799 #
9.0249168900676601647349592415942e-11 1:100329 2:102.043 3:46.441002 4:56.165001 5:79.044998 6:1.4299999 7:163.757 8:0.228 9:2.27 10:27.002001 11:216.291 12:1.295 13:1.414 14:0.94499999 15:26.906 16:-1.028 17:1.908 18:34.844002 19:-0.69 20:-0.33700001 21:52.097 22:0.81599998 23:312.36401 24:2 25:104.097 26:-0.145 27:-2.036 28:50.443001 29:-1.575 30:2.441 31:154.53999 32:0.0015027048 #
-9.0249168900676601647349592415942e-11 1:100423 2:90.030998 3:41.926998 4:41.931 5:378.767 6:2.799 7:858.45398 8:-1.4579999 9:0.50700003 10:110.841 11:718.005 12:0.48100001 13:1.247 14:0.95200002 15:120.39 16:-0.31999999 17:-2.2490001 18:57.935001 19:-0.39700001 20:-1.748 21:205.425 22:-2.1340001 23:777.698 24:3 25:229.22 26:-2.108 27:0.119 28:199.53 29:0.69199997 30:1.477 31:539.67999 32:0.35854 #
9.0249168900676601647349592415942e-11 1:110175 2:-999 3:61.749001 4:88.818001 5:1.635 6:-999 7:-999 8:-999 9:2.74 10:1.635 11:67.574997 12:1.151 13:-1.408 14:-999 15:31.417 16:-0.082999997 17:-0.271 18:36.157001 19:1.664 20:1.839 21:32.452999 22:-2.1989999 23:55.778 24:0 25:-999 26:-999 27:-999 28:-999 29:-999 30:-999 31:-0 32:0.0015018701 #
-2.9481205764397683718991936829834e-11 1:110422 2:-999 3:83.297997 4:39.923 5:4.4840002 6:-999 7:-999 8:-999 9:1.331 10:4.4840002 11:61.485001 12:1.267 13:-1.368 14:-999 15:27.118999 16:1.5700001 17:2.813 18:34.366001 19:2.372 20:-2.4089999 21:52.324001 22:0.35499999 23:75.424004 24:0 25:-999 26:-999 27:-999 28:-999 29:-999 30:-999 31:0 32:2.1042676 #
9.0249168900676601647349592415942e-11 1:100413 2:134.06599 3:24.363001 4:107.423 5:318.46301 6:0.32499999 7:231.45 8:-0.012 9:0.80699998 10:66.995003 11:672.02802 12:1.698 13:0.50999999 14:0 15:100.362 16:-1.5319999 17:-0.43099999 18:170.455 19:-0.80299997 20:-0.083999999 21:54.737999 22:0.169 23:688.70898 24:3 25:322.504 26:0.28200001 27:2.7 28:43.612999 29:-0.043000001 30:-1.119 31:401.211 32:0.018636117 #
-9.0249168900676601647349592415942e-11 1:100001 2:160.937 3:68.767998 4:103.235 5:48.146 6:-999 7:-999 8:-999 9:3.473 10:2.0780001 11:125.157 12:0.87900001 13:1.414 14:-999 15:42.014 16:2.039 17:-3.0109999 18:36.917999 19:0.50099999 20:0.103 21:44.703999 22:-1.916 23:164.54601 24:1 25:46.226002 26:0.72500002 27:1.158 28:-999 29:-999 30:-999 31:46.226002 32:2.2335844 #
9.0249168900676601647349592415942e-11 1:110270 2:107.267 3:22.719999 4:73.932999 5:3.098 6:-999 7:-999 8:-999 9:3.1530001 10:3.098 11:69.280998 12:1.176 13:-1.414 14:-999 15:31.833 16:0.82800001 17:1.784 18:37.446999 19:0.077 20:-1.438 21:4.1989999 22:0.829 23:133.88 24:0 25:-999 26:-999 27:-999 28:-999 29:-999 30:-999 31:-0 32:0.018636117 #
-9.0249168900676601647349592415942e-11 1:110396 2:74.343002 3:60.004002 4:59.536999 5:17.58 6:6.402 7:1347.442 8:-9.1479998 9:1.7539999 10:28.561001 11:223.408 12:0.85100001 13:-1.326 14:0.333 15:41.957001 16:-2.243 17:-2.0220001 18:35.695 19:-2.3080001 20:-0.26899999 21:39.626999 22:1.5779999 23:226.38 24:3 25:76.213997 26:-2.1530001 27:2.0999999 28:39.396 29:4.2480001 30:-1.5420001 31:145.756 32:0.064060777 #
9.0249168900676601647349592415942e-11 1:100071 2:-999 3:70.619003 4:81.223999 5:23.097 6:-999 7:-999 8:-999 9:1.724 10:23.097 11:122.205 12:0.30399999 13:-1.178 14:-999 15:93.740997 16:0.67500001 17:0.44100001 18:28.464001 19:1.294 20:2.05 21:75.369003 22:-2.4990001 23:169.293 24:0 25:-999 26:-999 27:-999 28:-999 29:-999 30:-999 31:-0 32:0.0015018701 #
-9.0249168900676601647349592415942e-11 1:104431 2:89.262001 3:14.053 4:56.445 5:45.299 6:-999 7:-999 8:-999 9:2.3399999 10:45.299 11:60.654999 12:0.81999999 13:1.353 14:-999 15:33.334 16:0.70300001 17:-0.463 18:27.320999 19:0.315 20:-2.7709999 21:24.223 22:-2.217 23:117.365 24:0 25:-999 26:-999 27:-999 28:-999 29:-999 30:-999 31:0 32:1.6816114 #
9.0249168900676601647349592415942e-11 1:110424 2:115.65 3:42.554001 4:51.070999 5:189.966 6:5.9120002 7:1683.1899 8:-8.724 9:1.13 10:8.4130001 11:278.121 12:1.212 13:1.413 14:0.93699998 15:42.993999 16:-0.93400002 17:1.4069999 18:52.102001 19:-0.63499999 20:2.4960001 21:108.671 22:1.923 23:240.875 24:2 25:117.327 26:3.0739999 27:-1.085 28:65.698997 29:-2.8380001 30:-1.349 31:183.02499 32:0.0015027048 #
-9.0249168900676601647349592415942e-11 1:109788 2:104.219 3:85.997002 4:85.137001 5:92.267998 6:4.1209998 7:1430.45 8:-2.6900001 9:1.4349999 10:2.3110001 11:498.53201 12:2.131 13:-1.153 14:0.528 15:42.221001 16:0.347 17:0.164 18:89.953003 19:-0.40000001 20:1.39 21:27.874001 22:-2.8280001 23:574.703 24:2 25:221.123 26:-0.81300002 27:-2.411 28:145.235 29:3.3080001 30:0.414 31:366.358 32:0.073899128 #
9.0249168900676601647349592415942e-11 1:100272 2:-999 3:158.871 4:100.936 5:3.395 6:-999 7:-999 8:-999 9:1.526 10:3.395 11:125.015 12:0.77600002 13:-1.413 14:-999 15:70.384003 16:0.79799998 17:-2.4649999 18:54.631001 19:2.188 20:-1.834 21:118.663 22:0.97899997 23:103.183 24:0 25:-999 26:-999 27:-999 28:-999 29:-999 30:-999 31:0 32:0.0015018701 #
-9.0249168900676601647349592415942e-11 1:108400 2:-999 3:84.836998 4:50.140999 5:93.644997 6:1.786 7:174.5 8:-0.28200001 9:2.53 10:42.972 11:180.86501 12:1.592 13:-1.4069999 14:0.75400001 15:20.143999 16:-0.81 17:-1.988 18:32.066002 19:-0.244 20:1.829 21:105.889 22:0.198 23:271.84399 24:2 25:81.462997 26:-1.612 27:3.0599999 28:47.191002 29:0.175 30:-0.713 31:128.65401 32:1.0105538 #
9.0249168900676601647349592415942e-11 1:110355 2:107.506 3:16.445999 4:57.625999 5:169.642 6:4.7329998 7:1606.854 8:-5.0679998 9:1.235 10:48.243999 11:470.14499 12:0.861 13:1.2460001 14:0.74400002 15:53.608002 16:-0.61400002 17:-0.33199999 18:46.134998 19:-0.55699998 20:0.90100002 21:91.900002 22:0.648 23:499.61899 24:3 25:220.901 26:-1.636 27:-2.6070001 28:101.028 29:3.0969999 30:0.921 31:370.40201 32:0.0015027048 #
-9.0249168900676601647349592415942e-11 1:110341 2:87.112999 3:1.7130001 4:45.931 5:229.242 6:1.863 7:754.323 8:-0.83200002 9:0.83600003 10:107.125 11:759.71997 12:0.37799999 13:0.74900001 14:0.066 15:86.792 16:0.51899999 17:0.15800001 18:32.846001 19:1.349 20:0.063000001 21:109.983 22:0.035 23:805.43701 24:3 25:333.95901 26:-1.119 27:-1.929 28:207.123 29:0.74400002 30:1.886 31:640.08301 32:0.064060777 #
9.0249168900676601647349592415942e-11 1:100193 2:-999 3:75.248001 4:23.191 5:1.677 6:-999 7:-999 8:-999 9:0.85699999 10:1.677 11:55.612999 12:1.14 13:-1.4069999 14:-999 15:25.987 16:-1.7460001 17:2.6370001 18:29.625999 19:-1.9630001 20:1.808 21:49.452 22:-0.96399999 23:63.890999 24:0 25:-999 26:-999 27:-999 28:-999 29:-999 30:-999 31:0 32:0.0026533112 #
-9.0249168900676601647349592415942e-11 1:100004 2:175.864 3:16.915001 4:134.80499 5:16.405001 6:-999 7:-999 8:-999 9:3.891 10:16.405001 11:57.983002 12:1.056 13:-1.385 14:-999 15:28.209 16:-2.197 17:-2.2309999 18:29.774 19:0.79799998 20:1.569 21:2.723 22:-0.87099999 23:53.131001 24:0 25:-999 26:-999 27:-999 28:-999 29:-999 30:-999 31:0 32:6.2453327 #
9.0249168900676601647349592415942e-11 1:110450 2:121.664 3:13.745 4:91.738998 5:136.99899 6:1.476 7:132.903 8:1.779 9:1.785 10:47.319 11:342.17001 12:4.362 13:0.90399998 14:0.0080000004 15:21.747999 16:1.853 17:-0.249 18:94.866997 19:0.090000004 20:0.027000001 21:21.642 22:-0.27700001 23:388.20999 24:3 25:132.112 26:-2.2620001 27:2.9000001 28:47.355 29:-0.78600001 30:3.0510001 31:225.55499 32:0.018636117 #
-9.0249168900676601647349592415942e-11 1:110446 2:-999 3:133.506 4:43.729 5:72.023003 6:3.342 7:411.85199 8:1.074 9:1.089 10:39.897999 11:305.62601 12:2.6689999 13:-0.31099999 14:0.99699998 15:25.788 16:1.977 17:2.7809999 18:68.839996 19:2.062 20:1.6950001 21:72.584999 22:-2.1170001 23:389.70901 24:3 25:125.374 26:0.29499999 27:-0.0070000002 28:44.152 29:3.638 30:2.625 31:210.998 32:0.74405622 #
9.0249168900676601647349592415942e-11 1:100009 2:128.05299 3:88.941002 4:69.272003 5:193.392 6:-999 7:-999 8:-999 9:1.609 10:28.858999 11:255.123 12:0.59899998 13:0.53799999 14:-999 15:54.646 16:-1.533 17:0.41600001 18:32.742001 19:-0.317 20:-0.63599998 21:132.67799 22:0.84500003 23:294.741 24:1 25:167.735 26:-2.767 27:-2.5139999 28:-999 29:-999 30:-999 31:167.735 32:0.0015018701 #
-9.0249168900676601647349592415942e-11 1:100003 2:143.905 3:81.417 4:80.943001 5:0.414 6:-999 7:-999 8:-999 9:3.3099999 10:0.414 11:75.968002 12:2.3540001 13:-1.285 14:-999 15:22.646999 16:-1.655 17:0.0099999998 18:53.320999 19:-0.52200001 20:-3.0999999 21:31.082001 22:0.059999999 23:86.061996 24:0 25:-999 26:-999 27:-999 28:-999 29:-999 30:-999 31:-0 32:5.4463782 #
9.0249168900676601647349592415942e-11 1:110432 2:-999 3:127.103 4:59.869999 5:95.161003 6:2.7520001 7:525.521 8:0.071999997 9:1.749 10:218.01401 11:356.60001 12:0.745 13:-1.414 14:0.71899998 15:45.181 16:-2.188 17:1.885 18:33.674999 19:-2.1930001 20:0.13699999 21:145.121 22:-2.1459999 23:192.05299 24:2 25:200.955 26:-2.7780001 27:-2.4760001 28:76.788002 29:-0.026000001 30:0.82499999 31:277.74301 32:0.0015027048 #
-9.0249168900676601647349592415942e-11 1:110453 2:99.504997 3:33.480999 4:77.195999 5:239.49001 6:3.4990001 7:460.742 8:-1.1950001 9:0.81099999 10:13.43 11:476.83401 12:0.27500001 13:0.27200001 14:0.801 15:184.593 16:-0.89099997 17:2.822 18:50.761002 19:-0.542 20:-2.7290001 21:43.034 22:-1.9960001 23:560.64301 24:2 25:210.05099 26:0.384 27:-0.14 28:31.429001 29:-3.115 30:0.89300001 31:241.48 32:0.30716953 #
9.0249168900676601647349592415942e-11 1:100017 2:127.861 3:50.952999 4:77.266998 5:26.966999 6:-999 7:-999 8:-999 9:2.8329999 10:26.966999 11:79.502998 12:1.586 13:1.401 14:-999 15:30.739 16:-0.63499999 17:2.6029999 18:48.764 19:-0.34299999 20:-0.86199999 21:17.556999 22:-2.9749999 23:211.72 24:0 25:-999 26:-999 27:-999 28:-999 29:-999 30:-999 31:0 32:0.0015027048 #
-8.6465224640268809031505570228404e-11 1:102558 2:94.421997 3:46.027 4:63.706001 5:23.349001 6:-999 7:-999 8:-999 9:2.6889999 10:23.349001 11:65.362 12:1.073 13:1.05 14:-999 15:31.527 16:-2.3329999 17:1.079 18:33.834999 19:-2.2550001 20:-1.609 21:16.58 22:1.0549999 23:109.402 24:0 25:-999 26:-999 27:-999 28:-999 29:-999 30:-999 31:0 32:1.6816114 #
9.0249168900676601647349592415942e-11 1:110465 2:157.089 3:16.983 4:102.573 5:69.103996 6:1.319 7:148.545 8:-0.347 9:2.201 10:41.627998 11:275.065 12:0.53799999 13:0.32699999 14:0.75400001 15:70.759003 16:-1.688 17:1.416 18:38.039001 19:-0.64600003 20:-0.523 21:39.879002 22:-0.96200001 23:305.944 24:3 25:73.060997 26:-0.95499998 27:-2.6889999 28:51.175999 29:0.36399999 30:0.93699998 31:166.26801 32:0.0026533112 #
-9.0249168900676601647349592415942e-11 1:110363 2:756.41901 3:8.0240002 4:334.19699 5:137.464 6:3.23 7:462.245 8:-0.95899999 9:4.3930001 10:0.56800002 11:314.767 12:0.71200001 13:1.152 14:0.034000002 15:66.021004 16:-1.844 17:0.87599999 18:46.985001 19:1.6900001 20:-2.7969999 21:139.701 22:-2.8959999 23:328.371 24:2 25:145.498 26:0.331 27:-0.40700001 28:56.263 29:-2.8989999 30:1.505 31:201.75999 32:0.30716953 #
9.0249168900676601647349592415942e-11 1:100036 2:134.153 3:23.856001 4:100.96 5:9.3769999 6:-999 7:-999 8:-999 9:2.846 10:9.3769999 11:101.789 12:0.759 13:-1.405 14:-999 15:57.868999 16:-0.428 17:0.61400002 18:43.918999 19:-0.1 20:-2.842 21:11.797 22:-1.739 23:241.28101 24:0 25:-999 26:-999 27:-999 28:-999 29:-999 30:-999 31:-0 32:0.018636117 #
-9.0249168900676601647349592415942e-11 1:100008 2:105.594 3:50.558998 4:100.989 5:4.2880001 6:-999 7:-999 8:-999 9:2.904 10:4.2880001 11:65.333 12:0.67500001 13:-1.3660001 14:-999 15:39.007999 16:2.4330001 17:-2.5320001 18:26.325001 19:0.20999999 20:1.8839999 21:37.791 22:0.024 23:129.804 24:0 25:-999 26:-999 27:-999 28:-999 29:-999 30:-999 31:0 32:5.2960029 #
9.0249168900676601647349592415942e-11 1:110445 2:124.384 3:25.806999 4:98.365997 5:150.567 6:0.51700002 7:78.669998 8:-0.055 9:1.684 10:71.009003 11:421.15701 12:4.0760002 13:1.372 14:0.35100001 15:31.298 16:0.52999997 17:-1.3890001 18:127.564 19:-0.155 20:0.149 21:18.931999 22:-0.382 23:322.823 24:3 25:120.444 26:-0.149 27:-2.618 28:63.786999 29:0.368 30:2.9779999 31:262.29599 32:0.0026533112 #
-9.0249168900676601647349592415942e-11 1:110457 2:104.412 3:10.403 4:56.681999 5:127.418 6:2.9200001 7:278.5 8:1.28 9:1.393 10:0.30199999 11:243.862 12:0.39500001 13:1.2359999 14:0.19400001 15:70.295998 16:-0.043000001 17:2.8540001 18:27.732 19:0.023 20:1.4630001 21:57.459 22:1.725 23:289.099 24:2 25:105.154 26:-0.38699999 27:-0.66600001 28:40.68 29:-3.3069999 30:-1.8099999 31:145.834 32:0.30979514 #
9.0249168900676601647349592415942e-11 1:100015 2:111.026 3:32.096001 4:75.271004 5:23.066999 6:-999 7:-999 8:-999 9:3.2049999 10:23.066999 11:69.649002 12:1.276 13:-1.414 14:-999 15:30.606001 16:-1.107 17:-1.903 18:39.042999 19:-1.944 20:1.191 21:19.959 22:2.415 23:122.176 24:0 25:-999 26:-999 27:-999 28:-999 29:-999 30:-999 31:-0 32:0.018636117 #
-9.0249168900676601647349592415942e-11 1:100013 2:82.487999 3:31.663 4:64.127998 5:8.2320004 6:-999 7:-999 8:-999 9:2.823 10:8.2320004 11:58.648998 12:1.303 13:-1.414 14:-999 15:25.469999 16:-0.65399998 17:-2.99 18:33.179001 19:-1.665 20:-0.354 21:12.439 22:1.433 23:163.42 24:0 25:-999 26:-999 27:-999 28:-999 29:-999 30:-999 31:0 32:2.1838915 #
9.0249168900676601647349592415942e-11 1:110447 2:127.366 3:57.909 4:64.899002 5:155.795 6:0.38499999 7:42.979 8:2.181 9:1.585 10:33.271999 11:235.60001 12:3.404 13:1.414 14:0 15:24.264 16:1.369 17:2.4159999 18:82.602997 19:0.93199998 20:0.89200002 21:73.209 22:1.655 23:369.633 24:2 25:72.938004 26:-1.682 27:-1.45 28:55.794998 29:-1.2970001 30:-1.924 31:128.733 32:0.018636117 #
-9.0249168900676601647349592415942e-11 1:110416 2:162.84801 3:6.9219999 4:77.316002 5:147.27 6:1.905 7:246.54401 8:-0.25 9:2.4059999 10:26.504999 11:257.21301 12:1.943 13:1.123 14:0.65799999 15:20.025999 16:2.3269999 17:-2.5710001 18:38.904999 19:0.19400001 20:-1.457 21:97.276001 22:-1.5700001 23:349.522 24:2 25:120.613 26:1.763 27:1.829 28:77.668999 29:-0.142 30:0.47400001 31:198.282 32:2.7077451 #
9.0249168900676601647349592415942e-11 1:100047 2:130.07899 3:53.334999 4:97.434998 5:1.382 6:-999 7:-999 8:-999 9:3.023 10:1.382 11:93.254997 12:1.3200001 13:-1.403 14:-999 15:40.193001 16:-1.0599999 17:-0.65899998 18:53.062 19:-0.37400001 20:2.681 21:14.532 22:0.104 23:118.867 24:0 25:-999 26:-999 27:-999 28:-999 29:-999 30:-999 31:0 32:0.018636117 #
-9.0249168900676601647349592415942e-11 1:100022 2:87.074997 3:38.216999 4:67.041 5:2.3469999 6:-999 7:-999 8:-999 9:2.852 10:2.3469999 11:65.280998 12:1.276 13:-1.409 14:-999 15:28.688 16:1.739 17:-2.9749999 18:36.594002 19:2.3670001 20:-0.193 21:12.556 22:2.0079999 23:68.527 24:0 25:-999 26:-999 27:-999 28:-999 29:-999 30:-999 31:0 32:4.5693679 #
9.0249168900676601647349592415942e-11 1:110407 2:111.863 3:2.8859999 4:59.442001 5:136.588 6:4.4689999 7:593.30103 8:-4.1389999 9:1.758 10:10.866 11:223.909 12:1.67 13:0.95200002 14:0.91799998 15:27.163 16:-1.3 17:-2.8299999 18:45.363998 19:-0.271 20:-1.404 21:85.445999 22:-1.358 23:335.39401 24:2 25:115.961 26:-3.158 27:1.701 28:35.422001 29:1.311 30:1.156 31:151.383 32:0.0015027048 #
-9.0249168900676601647349592415942e-11 1:110301 2:96.066002 3:32.282001 4:59.691002 5:115.512 6:4.2189999 7:731.31403 8:-4.1570001 9:1.495 10:13.362 11:341.048 12:0.76999998 13:1.402 14:0.23999999 15:48.240002 16:-1.34 17:-1.142 18:37.139 19:-1.978 20:0.20999999 21:48.554001 22:-0.56900001 23:366.70801 24:3 25:99.569 26:2.652 27:-3.0539999 28:78.307999 29:-1.567 30:1.393 31:255.66901 32:0.064060777 #
9.0249168900676601647349592415942e-11 1:100040 2:109.684 3:42.664001 4:86.064003 5:0.23 6:-999 7:-999 8:-999 9:2.7449999 10:0.23 11:82.944 12:0.93900001 13:-1.414 14:-999 15:42.786999 16:-1.942 17:-0.574 18:40.158001 19:-1.2180001 20:2.0739999 21:20.195 22:-2.516 23:59.902 24:0 25:-999 26:-999 27:-999 28:-999 29:-999 30:-999 31:0 32:0.018636117 #
-9.0249168900676601647349592415942e-11 1:100021 2:90.736 3:18.674 4:60.230999 5:25.156 6:-999 7:-999 8:-999 9:2.3629999 10:25.156 11:64.833 12:0.74900001 13:-0.80000001 14:-999 15:37.060001 16:1.5369999 17:-2.6159999 18:27.773001 19:1.161 20:1.335 21:27.431 22:0.64499998 23:169.061 24:0 25:-999 26:-999 27:-999 28:-999 29:-999 30:-999 31:0 32:1.6816114 #
9.0249168900676601647349592415942e-11 1:110340 2:109.921 3:1.243 4:72.945 5:173.097 6:4.9710002 7:1177.249 8:-6.1659999 9:1.228 10:2.7019999 11:322.577 12:1.152 13:0.84200001 14:0.912 15:52.035999 16:-0.57300001 17:-2.4260001 18:59.959 19:0.64999998 20:-2.5439999 21:61.407001 22:-2.5650001 23:313.94299 24:2 25:143.30701 26:2.381 27:1.03 28:67.275002 29:-2.589 30:-0.315 31:210.582 32:0.0015027048 #
-9.0249168900676601647349592415942e-11 1:110241 2:196.28799 3:0.70899999 4:97.380997 5:89.958 6:2.7320001 7:698.30798 8:2.7309999 9:2.675 10:88.040001 11:545.46503 12:0.634 13:0.98199999 14:0.046 15:48.77 16:1.864 17:2.6029999 18:30.917 19:0.25 20:0.47 21:75.599998 22:0.45500001 23:634.32703 24:3 25:175.004 26:-0.778 27:1.73 28:159.405 29:-3.51 30:-1.745 31:465.77802 32:0.35854 #
9.0249168900676601647349592415942e-11 1:100061 2:122.934 3:73.140999 4:68.069 5:4.6469998 6:-999 7:-999 8:-999 9:2.9920001 10:4.6469998 11:74.408997 12:2.326 13:-1.3609999 14:-999 15:22.375 16:0.80500001 17:-1.579 18:52.034 19:0.81400001 20:1.413 21:25.922001 22:-1.913 23:89.716003 24:0 25:-999 26:-999 27:-999 28:-999 29:-999 30:-999 31:0 32:0.018636117 #
-9.0249168900676601647349592415942e-11 1:100025 2:76.883003 3:34.383999 4:56.993 5:5.5689998 6:-999 7:-999 8:-999 9:2.9119999 10:5.5689998 11:58.116001 12:1.492 13:-1.409 14:-999 15:23.319 16:-0.081 17:-0.338 18:34.797001 19:-0.32100001 20:2.5639999 21:10.098 22:-1.397 23:93.085999 24:0 25:-999 26:-999 27:-999 28:-999 29:-999 30:-999 31:-0 32:1.6816114 #
9.0249168900676601647349592415942e-11 1:110395 2:122.858 3:31.642 4:48.623001 5:184.86099 6:0.89899999 7:97.927002 8:-0.18000001 9:1.2869999 10:50.536999 11:367.034 12:0.755 13:1.386 14:0.041000001 15:46.591 16:-0.87599999 17:0.62800002 18:35.174999 19:-0.95200002 20:-0.65700001 21:120.429 22:-0.16599999 23:379.319 24:3 25:176.222 26:-0.59799999 27:3.131 28:58.561001 29:0.301 30:3.0409999 31:285.267 32:0.0015018701 #
-9.0249168900676601647349592415942e-11 1:110443 2:163.716 3:42.021 4:107.446 5:110.007 6:2.4389999 7:226.595 8:1.281 9:2.6889999 10:40.326 11:253.49001 12:1.961 13:0.228 14:0.58200002 15:22.392 16:-1.803 17:-1.6720001 18:43.910999 19:0.76700002 20:-2.4630001 21:65.867996 22:3.0179999 23:300.022 24:3 25:88.630997 26:2.8840001 27:1.147 28:53.209999 29:0.44400001 30:-0.012 31:187.187 32:1.3994412 #
9.0249168900676601647349592415942e-11 1:100075 2:98.597 3:41.715 4:78.617996 5:3.375 6:-999 7:-999 8:-999 9:2.4089999 10:3.375 11:86.580002 12:0.62 13:-1.359 14:-999 15:53.443001 16:-0.71399999 17:1.477 18:33.137001 19:-0.66799998 20:-0.93199998 21:36.055 22:-2.2279999 23:135.433 24:0 25:-999 26:-999 27:-999 28:-999 29:-999 30:-999 31:-0 32:0.0015018701 #
-9.0249168900676601647349592415942e-11 1:100041 2:90.833 3:62.236 4:53.228001 5:21.580999 6:-999 7:-999 8:-999 9:2.6289999 10:21.580999 11:55.181999 12:1.4450001 13:-0.79699999 14:-999 15:22.566 16:1.645 17:-2.03 18:32.616001 19:1.2869999 20:0.574 21:29.74 22:-2.484 23:70.265999 24:0 25:-999 26:-999 27:-999 28:-999 29:-999 30:-999 31:0 32:2.0499506 #
9.0249168900676601647349592415942e-11 1:110418 2:146.53799 3:15.007 4:87.721001 5:71.046997 6:3.1229999 7:306.38 8:-1.4400001 9:2.0780001 10:20.101 11:239.871 12:0.31200001 13:0.30000001 14:0.699 15:85.933998 16:-1.15 17:-1.569 18:26.802999 19:-1.9349999 20:0.35499999 21:40.660999 22:0.81300002 23:289.92499 24:2 25:69.157997 26:0.56199998 27:2.964 28:57.976002 29:-2.5610001 30:1.1569999 31:127.133 32:0.0015027048 #
-9.0249168900676601647349592415942e-11 1:110460 2:110.626 3:4.1230001 4:76.251999 5:128.68401 6:1.448 7:193.623 8:-0.51499999 9:1.544 10:65.82 11:323.186 12:1.671 13:1.068 14:0.147 15:42.154999 16:-1.272 17:3.1300001 18:70.460999 19:-1.1 20:1.596 21:48.472 22:1.666 23:458.52499 24:3 25:126.486 26:-0.82300001 27:-1.526 28:44.831001 29:0.62599999 30:1.848 31:210.57001 32:0.78946137 #
9.0249168900676601647349592415942e-11 1:100058 2:104.221 3:13.816 4:71.224998 5:27.028999 6:-999 7:-999 8:-999 9:2.836 10:27.028999 11:70.782997 12:1.005 13:1.3890001 14:-999 15:35.306 16:-2.4430001 17:-2.9330001 18:35.478001 19:-2.046 20:-0.125 21:17.674 22:-0.68400002 23:149.85001 24:0 25:-999 26:-999 27:-999 28:-999 29:-999 30:-999 31:0 32:0.0015027048 #
-9.0249168900676601647349592415942e-11 1:100043 2:132.049 3:65.681999 4:87.936996 5:0.861 6:-999 7:-999 8:-999 9:2.9519999 10:0.861 11:87.374001 12:1.5420001 13:-1.377 14:-999 15:34.370998 16:-1.723 17:-2.546 18:53.002998 19:-1.181 20:0.35499999 21:21.006001 22:3.141 23:68.795998 24:0 25:-999 26:-999 27:-999 28:-999 29:-999 30:-999 31:-0 32:4.6801724 #
9.0249168900676601647349592415942e-11 1:110433 2:161.21201 3:22.195 4:103.118 5:54.865002 6:0.71399999 7:79.488998 8:5.1929998 9:2.5780001 10:3.3280001 11:200.043 12:0.60399997 13:1.383 14:0 15:68.940002 16:-0.43599999 17:-1.723 18:41.610001 19:-0.29800001 20:1.985 21:28.752001 22:2.6389999 23:262.164 24:2 25:55.222 26:2.664 27:0.98699999 28:34.271 29:1.949 30:-0.88700002 31:89.492996 32:0.018636117 #
-9.0249168900676601647349592415942e-11 1:110421 2:106.46 3:64.084 4:84.997002 5:59.999001 6:2.71 7:135.88901 8:-1.781 9:2.5090001 10:4.3060002 11:177.519 12:3.234 13:-1.408 14:0.58600003 15:24.843 16:-0.82599998 17:0.50700003 18:80.348999 19:-0.75700003 20:-2.0009999 21:24.434999 22:2.6659999 23:238.901 24:2 25:37.792 26:1.5880001 27:0.54000002 28:34.535 29:-1.1210001 30:1.568 31:72.327003 32:2.1823223 #
9.0249168900676601647349592415942e-11 1:100049 2:95.406998 3:21.584 4:67.765999 5:1.482 6:-999 7:-999 8:-999 9:3.0420001 10:1.482 11:67.893997 12:1.087 13:-1.414 14:-999 15:32.530998 16:0.801 17:1.0140001 18:35.362999 19:0.82599998 20:-2.227 21:4.6700001 22:-0.233 23:70.691002 24:0 25:-999 26:-999 27:-999 28:-999 29:-999 30:-999 31:0 32:0.018636117 #
-9.0249168900676601647349592415942e-11 1:100055 2:51.025002 3:50.314999 4:46.006001 5:1.303 6:-999 7:-999 8:-999 9:2.109 10:1.303 11:52.148998 12:1.155 13:-1.411 14:-999 15:24.198 16:0.87199998 17:-2.822 18:27.952 19:0.45699999 20:-0.755 21:28.169001 22:1.469 23:54.022999 24:0 25:-999 26:-999 27:-999 28:-999 29:-999 30:-999 31:-0 32:4.3878074 #
9.0249168900676601647349592415942e-11 1:110411 2:129.47301 3:6.3850002 4:80.313004 5:106.064 6:3.9130001 7:420.26199 8:-2.7119999 9:1.98 10:1.485 11:208.336 12:0.72899997 13:1.1849999 14:0.51200002 15:44.5 16:-1.099 17:-0.43200001 18:32.449001 19:0.54400003 20:-1.5369999 21:43.226002 22:-1.367 23:289.98099 24:2 25:93.842003 26:0.89999998 27:1.723 28:37.544998 29:-3.0120001 30:3.128 31:131.38699 32:0.018636117 #
-9.0249168900676601647349592415942e-11 1:110362 2:118.194 3:81.974998 4:65.463997 5:1.4220001 6:-999 7:-999 8:-999 9:2.9219999 10:1.4220001 11:71.817001 12:2.523 13:-1.321 14:-999 15:20.382999 16:-0.191 17:-0.54299998 18:51.435001 19:-0.56900001 20:2.355 21:32.951 22:-0.97399998 23:81.862 24:0 25:-999 26:-999 27:-999 28:-999 29:-999 30:-999 31:0 32:4.976644 #
9.0249168900676601647349592415942e-11 1:110352 2:126.405 3:8.8730001 4:68.693001 5:276.09399 6:-999 7:-999 8:-999 9:1.197 10:1.0599999 11:398.586 12:2.7780001 13:1.275 14:-999 15:32.655998 16:0.148 17:-1.5420001 18:90.730003 19:1.309 20:-1.832 21:153.71899 22:-1.757 23:470.59698 24:1 25:275.19901 26:0.31200001 27:1.387 28:-999 29:-999 30:-999 31:275.19901 32:0.0015027048 #
-9.0249168900676601647349592415942e-11 1:110285 2:69.737999 3:10.628 4:27.312 5:210.799 6:1.183 7:380.54099 8:0.199 9:0.85600001 10:26.362 11:428.19299 12:1.348 13:1.368 14:0.77600002 15:26.987 16:-1.2029999 17:-0.85500002 18:36.382999 19:-0.44299999 20:-1.249 21:148.64 22:-1.105 23:600.04602 24:2 25:248.218 26:-0.15000001 27:1.64 28:116.604 29:-1.332 30:-2.3080001 31:364.823 32:0.073899128 #
9.0249168900676601647349592415942e-11 1:100073 2:92.222 3:16.049999 4:64.768997 5:3.4219999 6:-999 7:-999 8:-999 9:2.8239999 10:3.4219999 11:66.947998 12:0.662 13:-1.39 14:-999 15:40.271 16:-2.0969999 17:1.567 18:26.677 19:-2.1630001 20:-1.256 21:13.736 22:-2.1210001 23:124.752 24:0 25:-999 26:-999 27:-999 28:-999 29:-999 30:-999 31:0 32:0.018636117 #
-9.0249168900676601647349592415942e-11 1:100016 2:114.256 3:4.3509998 4:67.962997 5:47.221001 6:-999 7:-999 8:-999 9:2.954 10:26.243 11:100.93 12:1.145 13:0.21799999 14:-999 15:30.145 16:0.484 17:-0.92900002 18:34.521999 19:-0.215 20:1.941 21:41.898998 22:2.0550001 23:191.56799 24:1 25:36.263 26:-0.76599997 27:-0.68599999 28:-999 29:-999 30:-999 31:36.263 32:1.4548485 #
9.0249168900676601647349592415942e-11 1:110436 2:38.716 3:5.8969998 4:27.77 5:60.709999 6:0.026000001 7:40.220001 8:7.3979998 9:1.013 10:1.081 11:125.026 12:1.189 13:0.075000003 14:0 15:24.049 16:1.3710001 17:2.109 18:28.591 19:2.3829999 20:2.154 21:8.6639996 22:2.5309999 23:167.584 24:2 25:40.494999 26:2.707 27:-0.463 28:31.891001 29:2.733 30:-1.635 31:72.385002 32:0.0015018701 #
-9.0249168900676601647349592415942e-11 1:110296 2:115.006 3:30.893 4:81.140999 5:66.845001 6:4.9829998 7:418.15701 8:-4.5430002 9:1.814 10:25.103001 11:173.24001 12:0.51999998 13:-0.17900001 14:0.98100001 15:68.116997 16:-2.3540001 17:0.34099999 18:35.400002 19:-1.632 20:2.0050001 21:39.241001 22:2.8599999 23:217.00999 24:2 25:38.174 26:-3.7820001 27:-1.722 28:31.549 29:1.201 30:-2.631 31:69.723 32:0.74405622 #
9.0249168900676601647349592415942e-11 1:100096 2:113.75 3:52.067001 4:76.262001 5:1.25 6:-999 7:-999 8:-999 9:2.9619999 10:1.25 11:77.982002 12:1.469 13:-1.391 14:-999 15:31.580999 16:-1.728 17:0.78200001 18:46.402 19:-1.721 20:-2.54 21:15.11 22:0.234 23:97.737 24:0 25:-999 26:-999 27:-999 28:-999 29:-999 30:-999 31:-0 32:0.018636117 #
-9.0249168900676601647349592415942e-11 1:100024 2:110.785 3:72.927002 4:82.775002 5:30.888 6:-999 7:-999 8:-999 9:3.0320001 10:30.888 11:77.888 12:2.5810001 13:1.353 14:-999 15:21.750999 16:-0.70899999 17:-1.0880001 18:56.137001 19:0.53100002 20:1.679 21:27.318001 22:-0.71600002 23:253.577 24:0 25:-999 26:-999 27:-999 28:-999 29:-999 30:-999 31:0 32:2.5416656 #
9.0249168900676601647349592415942e-11 1:110389 2:125.365 3:0.0060000001 4:75.577003 5:60.386002 6:2.4920001 7:317.608 8:-1.544 9:2.471 10:3.289 11:241.19501 12:0.861 13:1 14:0.034000002 15:35.272999 16:-0.93300003 17:0.39399999 18:30.360001 19:-2.3840001 20:-1.6059999 21:35.490002 22:-1.6059999 23:290.125 24:2 25:111.051 26:-1.337 27:1.586 28:64.511002 29:1.155 30:-1.973 31:175.562 32:0.0015027048 #
-9.0249168900676601647349592415942e-11 1:110368 2:105.095 3:15.436 4:61.890999 5:129.737 6:1.034 7:106.57 8:-0.146 9:1.529 10:47.162998 11:199.41499 12:0.73500001 13:1.388 14:0.80000001 15:45.651001 16:-0.65399998 17:1.288 18:33.562 19:0.59200001 20:2.1730001 21:58.396 22:1.823 23:294.31 24:2 25:84.647003 26:-0.169 27:-1.844 28:35.555 29:0.866 30:-0.003 31:120.202 32:1.3733909 #
9.0249168900676601647349592415942e-11 1:100115 2:134.16901 3:22.733999 4:93.297997 5:11.98 6:-999 7:-999 8:-999 9:3.4660001 10:11.98 11:72.805 12:1.17 13:-1.414 14:-999 15:33.546001 16:0.70300001 17:-2.6470001 18:39.258999 19:-0.77399999 20:0.50099999 21:9.1969995 22:-0.78100002 23:136.35001 24:0 25:-999 26:-999 27:-999 28:-999 29:-999 30:-999 31:0 32:0.0015027048 #
-9.0249168900676601647349592415942e-11 1:100035 2:72.711998 3:20.761999 4:50.255001 5:39.263 6:-999 7:-999 8:-999 9:2.1860001 10:21.816999 11:103.596 12:1.2690001 13:1.414 14:-999 15:25.084999 16:-0.25099999 17:3.006 18:31.832001 19:-0.35699999 20:0.82300001 21:12.563 22:1.915 23:152.875 24:1 25:46.679001 26:-1.711 27:-1.864 28:-999 29:-999 30:-999 31:46.679001 32:1.6816114 #
9.0249168900676601647349592415942e-11 1:110386 2:116.883 3:15.295 4:73.690002 5:226.213 6:1.182 7:116.161 8:8.8830004 9:1.194 10:42.977001 11:394.07199 12:2.4200001 13:1.175 14:0 15:40.831001 16:-1.036 17:-0.63599998 18:98.828003 19:-0.43599999 20:-1.6670001 21:101.899 22:-1.515 23:338.737 24:3 25:116.831 26:-2.448 27:1.7690001 28:67.957001 29:-3.6289999 30:1.52 31:254.41299 32:0.0015027048 #
-9.0249168900676601647349592415942e-11 1:110415 2:81.728996 3:5.7410002 4:56.498001 5:115.173 6:0.93699998 7:84.126999 8:7.4489999 9:1.212 10:48.122002 11:340.19101 12:0.53500003 13:1.25 14:0.126 15:63.612 16:1.232 17:-0.50300002 18:34.049999 19:2.0940001 20:0.34799999 21:26.811001 22:0.15800001 23:406.53101 24:3 25:74.365997 26:2.3 27:3.0090001 28:36.474998 29:3.2379999 30:-1.924 31:242.52901 32:0.064060777 #
9.0249168900676601647349592415942e-11 1:100007 2:154.916 3:10.418 4:94.713997 5:29.169001 6:-999 7:-999 8:-999 9:2.8970001 10:1.526 11:138.17799 12:0.36500001 13:-1.3049999 14:-999 15:78.800003 16:0.65399998 17:1.5470001 18:28.74 19:0.50599998 20:-1.347 21:22.275 22:-1.761 23:187.299 24:1 25:30.638 26:-0.71499997 27:-1.724 28:-999 29:-999 30:-999 31:30.638 32:0.018636117 #
-9.0249168900676601647349592415942e-11 1:100012 2:145.297 3:64.234001 4:103.565 5:106.999 6:-999 7:-999 8:-999 9:2.1830001 10:24.66 11:192.245 12:0.57599998 13:0.68900001 14:-999 15:62.889999 16:-0.76599997 17:-1.632 18:36.237 19:0.722 20:-0.035 21:43.91 22:-1.9069999 23:232.362 24:1 25:93.116997 26:-0.97000003 27:1.943 28:-999 29:-999 30:-999 31:93.116997 32:1.6816114 #
9.0249168900676601647349592415942e-11 1:110345 2:109.727 3:31.055 4:73.758003 5:180.856 6:0.433 7:122.642 8:0.030999999 9:1.234 10:92.518997 11:382.617 12:0.292 13:1.367 14:0 15:117.19 16:1.3200001 17:0.838 18:34.257 19:1.573 20:-0.37 21:48.185001 22:0.41499999 23:444.18701 24:3 25:78.431 26:0.495 27:-1.469 28:72.593002 29:0.061999999 30:3.0669999 31:231.17 32:0.018636117 #
-9.0249168900676601647349592415942e-11 1:110329 2:90.764999 3:0.17299999 4:45.212002 5:123.725 6:0.55299997 7:73.535004 8:9.7650003 9:1.376 10:26.552999 11:221.85001 12:0.77700001 13:1.0039999 14:0 15:38.740002 16:-0.565 17:3.02 18:30.083 19:0.124 20:-2.072 21:73.846001 22:-2.076 23:271.55899 24:2 25:80.647003 26:2.8599999 27:1.273 28:72.378998 29:3.414 30:0.51499999 31:153.026 32:0.071357138 #
9.0249168900676601647349592415942e-11 1:100079 2:123.29 3:52.953999 4:76.945999 5:129.157 6:-999 7:-999 8:-999 9:1.7690001 10:26.757999 11:224.79601 12:0.42699999 13:1.286 14:-999 15:76.021004 16:0.184 17:-1.902 18:32.459 19:0.082999997 20:2.615 21:52.567001 22:-2.277 23:273.452 24:1 25:116.316 26:-1.171 27:0.64099997 28:-999 29:-999 30:-999 31:116.316 32:0.0026533112 #
-9.0249168900676601647349592415942e-11 1:100034 2:156.894 3:39.256001 4:122.894 5:71.681999 6:-999 7:-999 8:-999 9:2.3870001 10:29.365 11:148.381 12:1.11 13:0.65499997 14:-999 15:48.605 16:-2.1229999 17:-3.0179999 18:53.932999 19:-0.456 20:-1.308 21:10.096 22:2.9760001 23:195.864 24:1 25:45.842999 26:1.131 27:1.15 28:-999 29:-999 30:-999 31:45.842999 32:2.380224 #
9.0249168900676601647349592415942e-11 1:110339 2:118.652 3:4.8670001 4:67.050003 5:92.067001 6:4.6919999 7:673.03497 8:-5.2740002 9:1.9809999 10:1.814 11:200.771 12:0.66600001 13:1.122 14:0.73699999 15:42.729 16:0.53500003 17:1.42 18:28.473 19:1.775 20:-0.125 21:48.729 22:0.0060000001 23:255.586 24:2 25:72.125999 26:-1.8660001 27:-2.0190001 28:57.443001 29:2.8269999 30:2.651 31:129.569 32:0.0015027048 #
-9.0249168900676601647349592415942e-11 1:110199 2:107.732 3:5.0079999 4:68.233002 5:136.095 6:5.0289998 7:602.30902 8:-5.974 9:1.526 10:38.463001 11:221.72301 12:0.42699999 13:1.345 14:0.78100002 15:63.041 16:2.128 17:0.44400001 18:26.921 19:0.66000003 20:0.028999999 21:48.113998 22:0.168 23:271.439 24:3 25:59.411999 26:-3.1040001 27:-2.7449999 28:40.441002 29:1.924 30:3.1289999 31:131.76199 32:0.083414033 #
9.0249168900676601647349592415942e-11 1:100026 2:137.19701 3:68.009003 4:78.295998 5:35.332001 6:-999 7:-999 8:-999 9:2.8829999 10:0.204 11:115.081 12:1.295 13:1.403 14:-999 15:34.657001 16:1.587 17:-2.2309999 18:44.896999 19:1.664 20:1.17 21:32.07 22:-2.891 23:82.223999 24:1 25:35.527 26:4.3470001 27:-0.169 28:-999 29:-999 30:-999 31:35.527 32:0.0015027048 #
-9.0249168900676601647349592415942e-11 1:100044 2:84.860001 3:33.706001 4:67.847 5:18.079 6:-999 7:-999 8:-999 9:2.346 10:18.079 11:73.32 12:1.076 13:-1.367 14:-999 15:35.311001 16:1.323 17:2.5050001 18:38.008999 19:1.526 20:-1.4400001 21:17.650999 22:-0.023 23:176.82001 24:0 25:-999 26:-999 27:-999 28:-999 29:-999 30:-999 31:-0 32:0.071357138 #
9.0249168900676601647349592415942e-11 1:110356 2:135.125 3:20.594 4:100.805 5:82.242996 6:0.391 7:85.512001 8:7.5570002 9:1.956 10:39.257 11:225.83 12:0.51099998 13:-0.057 14:0 15:72.852997 16:1.53 17:-0.991 18:37.195999 19:0.213 20:-2.438 21:15.282 22:2.9519999 23:328.185 24:2 25:69.825996 26:2.951 27:1.419 28:45.955002 29:2.5599999 30:3.02 31:115.78 32:0.0015018701 #
-9.0249168900676601647349592415942e-11 1:110344 2:143.992 3:12.859 4:65.713997 5:156.44099 6:0.059999999 7:108.505 8:0.41800001 9:1.826 10:9.2939997 11:264.64899 12:1.029 13:1.168 14:0 15:40.009998 16:-0.741 17:1.145 18:41.181999 19:-0.249 20:2.9030001 21:112.581 22:2.714 23:347.995 24:2 25:104.202 26:-0.61699998 27:-0.068000004 28:79.254997 29:-0.67799997 30:-1.3049999 31:183.457 32:0.74405622 #
9.0249168900676601647349592415942e-11 1:100119 2:116.446 3:10.168 4:85.445 5:1.035 6:-999 7:-999 8:-999 9:3.0250001 10:1.035 11:84.650002 12:0.71899998 13:-1.387 14:-999 15:49.247002 16:0.36700001 17:1.085 18:35.402 19:-0.086000003 20:-2.207 21:15.307 22:-1.767 23:124.793 24:0 25:-999 26:-999 27:-999 28:-999 29:-999 30:-999 31:0 32:0.018636117 #
-9.0249168900676601647349592415942e-11 1:100054 2:219.29201 3:74.599998 4:177.14301 5:2.4230001 6:-999 7:-999 8:-999 9:4.0539999 10:2.4230001 11:71.678001 12:1.841 13:-1.337 14:-999 15:25.232 16:1.099 17:-2.4100001 18:46.446999 19:-2.1270001 20:1.419 21:31.593 22:-1.263 23:106.965 24:0 25:-999 26:-999 27:-999 28:-999 29:-999 30:-999 31:0 32:6.988256 #
9.0249168900676601647349592415942e-11 1:110338 2:135.444 3:11.759 4:96.646004 5:29.566999 6:0.94999999 7:128.157 8:1.637 9:2.5869999 10:5.9720001 11:218.645 12:0.76200002 13:-1.413 14:0 15:57.313 16:0.764 17:2.7739999 18:43.694 19:0.95599997 20:-0.93000001 21:1.4 22:0.77100003 23:287.146 24:2 25:71.364998 26:-0.88999999 27:0.59899998 28:46.272999 29:-1.84 30:-2.355 31:117.638 32:0.018636117 #
-9.0249168900676601647349592415942e-11 1:110273 2:82.486 3:75.379997 4:68.341003 5:16.381001 6:5.0669999 7:425.15601 8:-3.076 9:1.997 10:22.555 11:137.015 12:1.054 13:-1.335 14:0.99900001 15:34.134998 16:-0.64399999 17:-2.6570001 18:35.983002 19:-1.924 20:2.0940001 21:41.469002 22:-0.60500002 23:238.09 24:2 25:34.699001 26:-4.3610001 27:2.7079999 28:32.198002 29:0.70499998 30:0.33199999 31:66.897003 32:1.4548485 #
9.0249168900676601647349592415942e-11 1:100167 2:145.804 3:25.979 4:99.359001 5:23.893999 6:-999 7:-999 8:-999 9:3.1099999 10:23.893999 11:98.884003 12:0.64200002 13:1.414 14:-999 15:60.222 16:-0.49399999 17:1.324 18:38.661999 19:-0.98299998 20:-1.747 21:12.586 22:-0.48800001 23:180.789 24:0 25:-999 26:-999 27:-999 28:-999 29:-999 30:-999 31:0 32:0.018636117 #
-9.0249168900676601647349592415942e-11 1:100050 2:219.05701 3:72.460999 4:124.835 5:5.506 6:-999 7:-999 8:-999 9:3.7709999 10:46.936001 11:122.986 12:1.932 13:-1.382 14:-999 15:24.759001 16:-1.063 17:0.33199999 18:47.830002 19:1.347 20:-2.569 21:28.499001 22:0.95999998 23:90.355003 24:1 25:50.396 26:-0.708 27:-0.64200002 28:-999 29:-999 30:-999 31:50.396 32:2.9421177 #
9.0249168900676601647349592415942e-11 1:110239 2:128.51199 3:28.471001 4:96.335999 5:198.35899 6:3.27 7:654.763 8:-2.5610001 9:1.146 10:7.2309999 11:488.55801 12:0.542 13:1.3329999 14:0.98000002 15:115.322 16:-0.82999998 17:1.878 18:62.460999 19:-0.101 20:0.99400002 21:36.109001 22:1.603 23:500.60699 24:2 25:250.745 26:1.301 27:-1.598 28:60.029999 29:-1.969 30:1.438 31:310.77499 32:0.0015027048 #
-9.0249168900676601647349592415942e-11 1:110297 2:85.315002 3:28.819 4:58.198002 5:201.118 6:0.114 7:359.608 8:0.39300001 9:0.84100002 10:42.925999 11:529.51398 12:1.527 13:0.227 14:0 15:54.470001 16:1.327 17:-1.924 18:83.198997 19:2.152 20:-1.76 21:68.459 22:-1.376 23:549.12299 24:2 25:242.67599 26:0.57300001 27:2.247 28:149.16901 29:0.68599999 30:-0.15800001 31:391.845 32:0.30716953 #
9.0249168900676601647349592415942e-11 1:100028 2:118.104 3:2.6329999 4:77.309998 5:91.388 6:-999 7:-999 8:-999 9:1.976 10:21.535999 11:159.743 12:1.1720001 13:1.061 14:-999 15:37.999001 16:-0.214 17:-2.678 18:44.522999 19:-1.354 20:-1.064 21:39.140999 22:-1.127 23:175.843 24:1 25:77.221001 26:-0.048999999 27:1.426 28:-999 29:-999 30:-999 31:77.221001 32:0.0015027048 #
-9.0249168900676601647349592415942e-11 1:100063 2:92.065002 3:65.274002 4:53.52 5:28.173 6:-999 7:-999 8:-999 9:2.7379999 10:28.173 11:54.346001 12:1.202 13:-1.304 14:-999 15:24.676001 16:-0.82800001 17:1.37 18:29.67 19:-0.54100001 20:-2.1900001 21:36.512001 22:0.69199997 23:84.621002 24:0 25:-999 26:-999 27:-999 28:-999 29:-999 30:-999 31:0 32:4.3775735 #
9.0249168900676601647349592415942e-11 1:110336 2:107.163 3:35.397999 4:69.902 5:56.348 6:2.0840001 7:120.165 8:-0.13699999 9:2.3570001 10:2.0469999 11:155.868 12:0.80299997 13:1.41 14:0.824 15:41.029999 16:1.043 17:0.428 18:32.948002 19:0.51499999 20:2.7249999 21:25.191999 22:1.402 23:185.38499 24:2 25:43.241001 26:2.016 27:-1.029 28:38.648998 29:-0.068000004 30:-2.701 31:81.889999 32:0.018636117 #
-9.0249168900676601647349592415942e-11 1:110303 2:130.804 3:80.178001 4:100.314 5:109.883 6:2.5209999 7:257.42001 8:-0.116 9:1.784 10:3.8410001 11:265.56799 12:0.78399998 13:0.189 14:0.80199999 15:64.364998 16:-1.8 17:0.98299998 18:50.463001 19:-0.62099999 20:2.322 21:43.049 22:0.25099999 23:282.612 24:2 25:97.558998 26:-2.474 27:-2.516 28:53.18 29:0.046999998 30:-0.89399999 31:150.739 32:1.9618318 #
9.0249168900676601647349592415942e-11 1:100166 2:104.449 3:27.09 4:74.348999 5:4.329 6:-999 7:-999 8:-999 9:3.217 10:4.329 11:67.815002 12:1.053 13:1.405 14:-999 15:33.033001 16:0.77999997 17:2.244 18:34.780998 19:-0.093000002 20:-0.94300002 21:5.3369999 22:2.4159999 23:122.548 24:0 25:-999 26:-999 27:-999 28:-999 29:-999 30:-999 31:-0 32:0.018636117 #
-9.0249168900676601647349592415942e-11 1:100080 2:84.608002 3:50.049999 4:63.451 5:0.65799999 6:-999 7:-999 8:-999 9:2.961 10:0.65799999 11:57.910999 12:1.655 13:-1.375 14:-999 15:21.816 16:2.4449999 17:-0.56699997 18:36.095001 19:1.377 20:2.954 21:18.405001 22:0.296 23:29.742001 24:0 25:-999 26:-999 27:-999 28:-999 29:-999 30:-999 31:0 32:5.0992455 #
9.0249168900676601647349592415942e-11 1:110287 2:114.749 3:36.837002 4:68.917 5:58.436001 6:3.9779999 7:473.11499 8:-3.247 9:2.8169999 10:4.677 11:192.737 12:1.114 13:-0.96700001 14:0.109 15:24.239 16:-0.34 17:1.41 18:27.000999 19:-2.1199999 20:-2.6900001 21:62.154999 22:-1.757 23:240.289 24:2 25:102.057 26:-1.147 27:1.053 28:39.438999 29:2.832 30:-2.043 31:141.496 32:0.0015027048 #
-9.0249168900676601647349592415942e-11 1:110326 2:77.585999 3:49.651001 4:53.577 5:112.274 6:0.28799999 7:66.236 8:0.114 9:1.29 10:2.6919999 11:216.8 12:1.306 13:1.15 14:0 15:38.665001 16:-0.43799999 17:2.71 18:50.487999 19:-0.73799998 20:-2.3180001 21:44.261002 22:2.859 23:261.93399 24:2 25:79.390999 26:0.51099998 27:-0.27500001 28:48.256001 29:0.223 30:0.74599999 31:127.647 32:1.4548485 #
9.0249168900676601647349592415942e-11 1:100179 2:106.257 3:52.837002 4:79.097 5:27.743999 6:-999 7:-999 8:-999 9:3.3180001 10:27.743999 11:67.903999 12:0.92699999 13:-1.414 14:-999 15:35.237999 16:-1.524 17:2.313 18:32.666 19:-0.38800001 20:-0.80400002 21:26.792999 22:-3.0120001 23:131.547 24:0 25:-999 26:-999 27:-999 28:-999 29:-999 30:-999 31:0 32:0.018636117 #
-9.0249168900676601647349592415942e-11 1:100069 2:101.675 3:72.911003 4:49.452999 5:42.632999 6:-999 7:-999 8:-999 9:2.605 10:42.632999 11:51.687 12:1.302 13:0.13600001 14:-999 15:22.455 16:1.337 17:1.183 18:29.231001 19:1.411 20:-1.421 21:46.471001 22:1.425 23:126.9 24:0 25:-999 26:-999 27:-999 28:-999 29:-999 30:-999 31:0 32:1.6816114 #
9.0249168900676601647349592415942e-11 1:110317 2:108.142 3:18.127001 4:73.684998 5:11.251 6:0.64099997 7:83.778999 8:1.308 9:2.9389999 10:26.236 11:153.963 12:0.89099997 13:1.375 14:0 15:38.734001 16:-1.983 17:1.346 18:34.514 19:-2.3110001 20:-2.017 21:2.566 22:1.669 23:247.914 24:2 25:48.630001 26:-0.86699998 27:1.59 28:32.085999 29:-1.5089999 30:-1.4809999 31:80.714996 32:0.0026533112 #
-9.0249168900676601647349592415942e-11 1:110266 2:123.187 3:1.612 4:82.275002 5:56.223999 6:1.877 7:154.98801 8:-0.838 9:2.9460001 10:33.459999 11:228.655 12:1.844 13:1.109 14:0.103 15:28.120001 16:-0.78399998 17:-2.8659999 18:51.845001 19:-1.62 20:0.59200001 21:30.233999 22:0.63300002 23:217.082 24:3 25:81.726997 26:-1.143 27:-1.478 28:34.154999 29:0.73299998 30:2.086 31:148.69 32:0.35854 #
9.0249168900676601647349592415942e-11 1:100159 2:66.478996 3:30.044001 4:49.848 5:2.267 6:-999 7:-999 8:-999 9:2.7460001 10:2.267 11:49.676998 12:1.136 13:-1.405 14:-999 15:23.252001 16:-1.891 17:3.0339999 18:26.424999 19:-2.3610001 20:0.329 21:10.407 22:-1.938 23:68.861 24:0 25:-999 26:-999 27:-999 28:-999 29:-999 30:-999 31:-0 32:0.018636117 #
-9.0249168900676601647349592415942e-11 1:100048 2:167.534 3:41.277 4:123.308 5:9.9090004 6:-999 7:-999 8:-999 9:2.776 10:9.9090004 11:124.886 12:0.713 13:-1.406 14:-999 15:72.924004 16:-0.14 17:0.93400002 18:51.962002 19:0.266 20:-2.6029999 21:23.577 22:-1.342 23:319.578 24:0 25:-999 26:-999 27:-999 28:-999 29:-999 30:-999 31:0 32:1.7409753 #
9.0249168900676601647349592415942e-11 1:110231 2:129.763 3:4.2740002 4:67.639 5:68.012001 6:2.961 7:608.62598 8:-1.55 9:2.437 10:3.694 11:337.46899 12:0.83200002 13:1.122 14:0.93199998 15:37.827999 16:-0.243 17:1.413 18:31.468 19:0.40799999 20:-0.93599999 21:55.054001 22:-0.833 23:370.18301 24:2 25:159.131 26:2.2809999 27:2.0969999 28:109.042 29:-0.68000001 30:-1.436 31:268.17401 32:0.0015027048 #
-9.0249168900676601647349592415942e-11 1:110332 2:104.673 3:94.542 4:63.008999 5:25.419001 6:0.93300003 7:160.743 8:1.6440001 9:2.53 10:42.508999 11:263.237 12:1.888 13:-1.175 14:0.70599997 15:23.502001 16:-0.62400001 17:0.333 18:44.360001 19:-1.089 20:-2.154 21:50.627998 22:1.13 23:243.502 24:3 25:88.414001 26:-1.831 27:-2.244 28:65.069 29:-0.898 30:1.648 31:195.375 32:0.74405622 #
9.0249168900676601647349592415942e-11 1:100267 2:218.194 3:111.502 4:168.771 5:53.271 6:-999 7:-999 8:-999 9:3.0580001 10:53.271 11:156.80099 12:1.206 13:1.41 14:-999 15:71.081001 16:0.12899999 17:-0.528 18:85.720001 19:0.949 20:2.809 21:46.465 22:-1.308 23:245.88 24:0 25:-999 26:-999 27:-999 28:-999 29:-999 30:-999 31:0 32:0.0026533112 #
-9.0249168900676601647349592415942e-11 1:100062 2:139.394 3:71.611 4:78.710999 5:28.947001 6:-999 7:-999 8:-999 9:2.9449999 10:2.3989999 11:110.117 12:1.594 13:1.397 14:-999 15:30.409 16:2.4519999 17:-0.472 18:48.470001 19:1.948 20:2.4289999 21:30.839001 22:0.061000001 23:162.62801 24:1 25:31.238001 26:-2.1229999 27:-2.415 28:-999 29:-999 30:-999 31:31.238001 32:2.0228288 #
9.0249168900676601647349592415942e-11 1:110278 2:131.192 3:18.99 4:92.605003 5:52.104 6:1.391 7:130.93201 8:1.909 9:3.0710001 10:9.3079996 11:195.233 12:1.878 13:1.396 14:0.46700001 15:30.096001 16:0.064000003 17:-0.085000001 18:56.518002 19:-0.94 20:-2.9879999 21:24.362 22:-2.471 23:318.61499 24:2 25:63.665001 26:-2.2420001 27:-0.20900001 28:44.953999 29:-0.85100001 30:2.191 31:108.619 32:0.0015027048 #
-9.0249168900676601647349592415942e-11 1:110308 2:659.58197 3:122.109 4:572.547 5:122.823 6:1.949 7:308.51999 8:-0.57499999 9:3.964 10:44.316002 11:464.319 12:2.0079999 13:-1.413 14:0.182 15:62.453999 16:1.863 17:-1.309 18:125.399 19:-1.883 20:-2.6029999 21:33.414001 22:1.216 23:425.883 24:3 25:164.278 26:-1.587 27:0.69199997 28:63.063 29:0.36199999 30:-2.1210001 31:276.466 32:1.4890016 #
9.0249168900676601647349592415942e-11 1:100110 2:139.756 3:33.666 4:92.662003 5:122.937 6:-999 7:-999 8:-999 9:1.8789999 10:5.4819999 11:244.12399 12:1.785 13:1.369 14:-999 15:41.723 16:1.924 17:-0.0020000001 18:74.494003 19:1.3660001 20:1.7920001 21:46.028 22:1.2079999 23:222.506 24:1 25:127.907 26:1.837 27:-1.936 28:-999 29:-999 30:-999 31:127.907 32:0.0026533112 #
-9.0249168900676601647349592415942e-11 1:101944 2:91.864998 3:61.437 4:68.570999 5:0.75599998 6:-999 7:-999 8:-999 9:2.931 10:0.75599998 11:61.689999 12:1.982 13:-1.344 14:-999 15:20.688999 16:-1.608 17:-0.064999998 18:41.000999 19:-0.35800001 20:-2.7160001 21:24.003 22:0.83399999 23:72.185997 24:0 25:-999 26:-999 27:-999 28:-999 29:-999 30:-999 31:0 32:5.4134154 #
9.0249168900676601647349592415942e-11 1:110262 2:123.828 3:7.6739998 4:58.998001 5:162.909 6:3.4779999 7:338.453 8:-3.0239999 9:1.2970001 10:100.244 11:276.69501 12:0.493 13:0.861 14:0.88800001 15:69.471001 16:-0.51700002 17:0.0099999998 18:34.259998 19:-0.60699999 20:-1.284 21:101.452 22:-1.414 23:380.71701 24:3 25:62.743999 26:1.733 27:1.577 28:59.681999 29:-1.745 30:1.485 31:172.964 32:0.0015027048 #
-9.0249168900676601647349592415942e-11 1:110406 2:525.02502 3:417.02802 4:235.15199 5:164.487 6:1.273 7:309.05701 8:-0.37 9:2.8870001 10:3.263 11:613.92401 12:6.0009999 13:1.351 14:0.037999999 15:45.082001 16:-1.757 17:-1.1289999 18:270.54599 19:-0.96200001 20:2.3789999 21:183.541 22:-1.483 23:444.24899 24:2 25:218.10699 26:0.82300001 27:-0.085000001 28:80.189003 29:-0.44999999 30:2.332 31:298.29599 32:0.74405622 #
9.0249168900676601647349592415942e-11 1:100229 2:139.27499 3:80.931999 4:93.968002 5:10.984 6:-999 7:-999 8:-999 9:3.3050001 10:10.984 11:86.357002 12:2.4170001 13:-1.404 14:-999 15:25.274 16:1.1210001 17:0.043000001 18:61.082001 19:-0.112 20:3.1099999 21:27.304001 22:-0.30199999 23:161.24699 24:0 25:-999 26:-999 27:-999 28:-999 29:-999 30:-999 31:-0 32:0.018636117 #
-9.0249168900676601647349592415942e-11 1:100091 2:124.118 3:59.132 4:77.775002 5:0.419 6:-999 7:-999 8:-999 9:3.112 10:0.419 11:75.390999 12:1.647 13:-1.381 14:-999 15:28.485001 16:-0.68400002 17:1.874 18:46.905998 19:-1.402 20:-1.382 21:18.813 22:1.566 23:40.299999 24:0 25:-999 26:-999 27:-999 28:-999 29:-999 30:-999 31:0 32:4.835763 #
9.0249168900676601647349592415942e-11 1:110211 2:118.36 3:67.850998 4:92.738998 5:74.400002 6:0.132 7:161.44501 8:1.05 9:3.079 10:26.358999 11:291.98099 12:4.2649999 13:1.414 14:0 15:22.330999 16:0.84299999 17:-3.01 18:95.236 19:0.63 20:0.061000001 21:21.865 22:-1.615 23:386.534 24:2 25:121.139 26:0.96100003 27:2.362 28:53.275002 29:1.0930001 30:-0.991 31:174.414 32:0.018636117 #
